{"learner":{"attributes":{"scikit_learn":"{\"_estimator_type\": \"classifier\"}"},"feature_names":[],"feature_types":[],"gradient_booster":{"model":{"cats":{"enc":[],"feature_segments":[],"sorted_idx":[]},"gbtree_model_param":{"num_parallel_tree":"1","num_trees":"300"},"iteration_indptr":[0,1,2,3,4,5,6,7,8,9,10,11,12,13,14,15,16,17,18,19,20,21,22,23,24,25,26,27,28,29,30,31,32,33,34,35,36,37,38,39,40,41,42,43,44,45,46,47,48,49,50,51,52,53,54,55,56,57,58,59,60,61,62,63,64,65,66,67,68,69,70,71,72,73,74,75,76,77,78,79,80,81,82,83,84,85,86,87,88,89,90,91,92,93,94,95,96,97,98,99,100,101,102,103,104,105,106,107,108,109,110,111,112,113,114,115,116,117,118,119,120,121,122,123,124,125,126,127,128,129,130,131,132,133,134,135,136,137,138,139,140,141,142,143,144,145,146,147,148,149,150,151,152,153,154,155,156,157,158,159,160,161,162,163,164,165,166,167,168,169,170,171,172,173,174,175,176,177,178,179,180,181,182,183,184,185,186,187,188,189,190,191,192,193,194,195,196,197,198,199,200,201,202,203,204,205,206,207,208,209,210,211,212,213,214,215,216,217,218,219,220,221,222,223,224,225,226,227,228,229,230,231,232,233,234,235,236,237,238,239,240,241,242,243,244,245,246,247,248,249,250,251,252,253,254,255,256,257,258,259,260,261,262,263,264,265,266,267,268,269,270,271,272,273,274,275,276,277,278,279,280,281,282,283,284,285,286,287,288,289,290,291,292,293,294,295,296,297,298,299,300],"tree_info":[0,0,0,0,0,0,0,0,0,0,0,0,0,0,0,0,0,0,0,0,0,0,0,0,0,0,0,0,0,0,0,0,0,0,0,0,0,0,0,0,0,0,0,0,0,0,0,0,0,0,0,0,0,0,0,0,0,0,0,0,0,0,0,0,0,0,0,0,0,0,0,0,0,0,0,0,0,0,0,0,0,0,0,0,0,0,0,0,0,0,0,0,0,0,0,0,0,0,0,0,0,0,0,0,0,0,0,0,0,0,0,0,0,0,0,0,0,0,0,0,0,0,0,0,0,0,0,0,0,0,0,0,0,0,0,0,0,0,0,0,0,0,0,0,0,0,0,0,0,0,0,0,0,0,0,0,0,0,0,0,0,0,0,0,0,0,0,0,0,0,0,0,0,0,0,0,0,0,0,0,0,0,0,0,0,0,0,0,0,0,0,0,0,0,0,0,0,0,0,0,0,0,0,0,0,0,0,0,0,0,0,0,0,0,0,0,0,0,0,0,0,0,0,0,0,0,0,0,0,0,0,0,0,0,0,0,0,0,0,0,0,0,0,0,0,0,0,0,0,0,0,0,0,0,0,0,0,0,0,0,0,0,0,0,0,0,0,0,0,0,0,0,0,0,0,0,0,0,0,0,0,0,0,0,0,0,0,0,0,0,0,0,0,0,0,0,0,0,0,0],"trees":[{"base_weights":[6.944953E-4,6.868934E-1,-1.3251255E0,9.521451E-2,1.0388502E0,-1.5435418E0,-5.16619E-1,7.3882234E-1,-3.5211745E-1,1.4544954E0,6.4450276E-1,-1.0254409E0,-1.7224436E0,-1.6459137E-1,-1.5003955E0,3.1104898E-1,1.1208014E0,-1.0128474E0,-1.1231584E-1,4.6737403E-1,1.4800465E0,-1.3521625E0,7.1097094E-1,-1.2020695E0,-1.465691E-1,-1.5058885E0,-9.307971E-2,9.221702E-2,-7.80539E-1,-9.2304194E-1,-9.4444446E-2,-6.9299354E-3,3.687117E-2,6.480264E-2,3.4535106E-2,-3.7426133E-2,-8.004393E-2,8.914663E-3,-3.4887984E-2,5.617228E-2,-3.9518114E-2,8.660069E-2,6.883406E-2,-8.709677E-2,-2.2843057E-2,4.0256333E-2,1.2239044E-3,-6.9726996E-2,-4.082476E-2,1.0133602E-2,-7.647059E-2,-8.315209E-2,-2.9892186E-2,-7.936167E-3,1.9472577E-2,-7.474851E-2,-1.8317766E-2,-8.3333336E-2,-1.8426038E-2],"categories":[],"categories_nodes":[],"categories_segments":[],"categories_sizes":[],"default_left":[0,0,0,0,0,0,0,0,0,0,0,0,0,0,0,0,0,0,0,0,0,0,0,0,0,0,0,0,0,0,0,0,0,0,0,0,0,0,0,0,0,0,0,0,0,0,0,0,0,0,0,0,0,0,0,0,0,0,0],"id":0,"left_children":[1,3,5,7,9,11,13,15,17,19,21,23,25,27,29,31,33,35,37,39,41,43,45,47,49,51,-1,53,55,57,-1,-1,-1,-1,-1,-1,-1,-1,-1,-1,-1,-1,-1,-1,-1,-1,-1,-1,-1,-1,-1,-1,-1,-1,-1,-1,-1,-1,-1],"loss_changes":[1.4961918E3,2.255745E2,9.8249146E1,1.1694715E2,1.10421265E2,3.911743E1,4.1587036E1,2.6859352E1,3.78786E1,7.6307373E0,4.746788E1,1.7782158E1,7.0322876E0,1.4321877E1,5.369133E0,1.5426489E1,5.7061768E0,8.706879E0,3.0248026E1,8.9639225E0,5.980713E0,3.2641258E0,2.194339E1,5.9996033E0,1.0209303E1,1.7973633E1,0E0,4.870716E0,7.3274097E0,5.4518394E0,0E0,0E0,0E0,0E0,0E0,0E0,0E0,0E0,0E0,0E0,0E0,0E0,0E0,0E0,0E0,0E0,0E0,0E0,0E0,0E0,0E0,0E0,0E0,0E0,0E0,0E0,0E0,0E0,0E0],"parents":[2147483647,0,0,1,1,2,2,3,3,4,4,5,5,6,6,7,7,8,8,9,9,10,10,11,11,12,12,13,13,14,14,15,15,16,16,17,17,18,18,19,19,20,20,21,21,22,22,23,23,24,24,25,25,27,27,28,28,29,29],"right_children":[2,4,6,8,10,12,14,16,18,20,22,24,26,28,30,32,34,36,38,40,42,44,46,48,50,52,-1,54,56,58,-1,-1,-1,-1,-1,-1,-1,-1,-1,-1,-1,-1,-1,-1,-1,-1,-1,-1,-1,-1,-1,-1,-1,-1,-1,-1,-1,-1,-1],"split_conditions":[3.708072E-1,1.5330921E-1,1.1604294E0,-1.1595066E0,-7.9315495E-1,2.4205412E-1,1.5677776E0,8.3149505E-1,-1.3017887E0,1.7417893E-1,1.7417893E-1,1.3362778E0,1.5693889E0,1.5693889E0,1.4690362E0,-1.1707137E0,2.30748E-1,-5.8962625E-1,-3.8609758E-1,9.9433625E-1,-1.240918E0,4.7021192E-1,9.5719165E-1,7.998053E-1,1.5693889E0,1.2204918E0,-9.307971E-2,9.9433625E-1,1.4482039E0,9.9433625E-1,-9.4444446E-2,-6.9299354E-3,3.687117E-2,6.480264E-2,3.4535106E-2,-3.7426133E-2,-8.004393E-2,8.914663E-3,-3.4887984E-2,5.617228E-2,-3.9518114E-2,8.660069E-2,6.883406E-2,-8.709677E-2,-2.2843057E-2,4.0256333E-2,1.2239044E-3,-6.9726996E-2,-4.082476E-2,1.0133602E-2,-7.647059E-2,-8.315209E-2,-2.9892186E-2,-7.936167E-3,1.9472577E-2,-7.474851E-2,-1.8317766E-2,-8.3333336E-2,-1.8426038E-2],"split_indices":[14,17,17,4,4,8,4,15,17,7,7,16,14,14,17,17,11,4,4,0,4,17,4,20,14,21,0,0,20,0,0,0,0,0,0,0,0,0,0,0,0,0,0,0,0,0,0,0,0,0,0,0,0,0,0,0,0,0,0],"split_type":[0,0,0,0,0,0,0,0,0,0,0,0,0,0,0,0,0,0,0,0,0,0,0,0,0,0,0,0,0,0,0,0,0,0,0,0,0,0,0,0,0,0,0,0,0,0,0,0,0,0,0,0,0,0,0,0,0,0,0],"sum_hessian":[1.6425707E3,1.0826896E3,5.598811E2,4.0429498E2,6.7839465E2,4.400841E2,1.1979699E2,1.6551103E2,2.3878395E2,3.2896973E2,3.4942493E2,1.14685616E2,3.253985E2,8.908629E1,3.0710703E1,7.893127E1,8.6579765E1,6.272709E1,1.7605685E2,8.787124E0,3.2018262E2,1.0634281E1,3.3879062E2,9.518779E1,1.9497826E1,1.3191924E2,1.9347926E2,6.347274E1,2.5613544E1,1.3710702E1,1.7E1,3.874565E1,4.018562E1,6.0084114E1,2.6495651E1,4.4842808E1,1.7884281E1,1.18119064E2,5.7937794E1,5.844983E0,2.9421406E0,8.8556854E1,2.3162575E2,6.75E0,3.884281E0,2.9777643E2,4.1014214E1,6.1747826E1,3.343997E1,1.6247826E1,3.25E0,1.11747826E2,2.0171404E1,3.466923E1,2.880351E1,8.442141E0,1.7171404E1,5E0,8.710702E0],"tree_param":{"num_deleted":"0","num_feature":"23","num_nodes":"59","size_leaf_vector":"1"}},{"base_weights":[-1.1947034E-2,6.543328E-1,-1.2776431E0,9.2072135E-1,-1.0101811E-1,-1.5280901E0,-6.5014833E-1,4.8675612E-1,1.0833594E0,-3.967069E-1,4.2254767E-1,-1.0461625E0,-1.6577201E0,-2.7812174E-1,-1.0958797E0,8.141981E-1,-2.6800317E-1,1.5498232E0,9.3814206E-1,6.2034655E-1,-6.8934387E-1,7.045966E-1,-3.4690686E-2,-8.0776924E-1,-1.5561634E0,-8.9046605E-2,-1.5227768E0,-8.2651347E-1,-7.884496E-2,4.5297988E-2,-1.1536216E0,2.8372481E-2,5.642416E-2,1.576033E-2,-2.0805357E-2,7.928439E-2,3.2538258E-2,2.7179554E-2,5.467477E-2,-3.0380476E-2,3.92433E-2,-6.245464E-2,-7.724335E-3,1.4425418E-2,4.7266252E-2,-4.326507E-2,9.755484E-3,-6.812041E-2,-2.4355125E-2,-3.306816E-2,-8.6161815E-2,1.4550871E-2,-7.761953E-2,3.1164294E-2,-4.8923593E-2,4.7947075E-3,-3.2636106E-2,-8.234944E-2,-4.3013822E-2],"categories":[],"categories_nodes":[],"categories_segments":[],"categories_sizes":[],"default_left":[0,0,0,0,0,0,0,0,0,0,0,0,1,0,0,0,0,0,0,0,0,0,0,0,0,0,0,0,0,0,0,0,0,0,0,0,0,0,0,0,0,0,0,0,0,0,0,0,0,0,0,0,0,0,0,0,0,0,0],"id":1,"left_children":[1,3,5,7,9,11,13,15,17,19,21,23,25,27,29,31,33,35,37,39,41,43,45,47,49,-1,51,53,55,-1,57,-1,-1,-1,-1,-1,-1,-1,-1,-1,-1,-1,-1,-1,-1,-1,-1,-1,-1,-1,-1,-1,-1,-1,-1,-1,-1,-1,-1],"loss_changes":[1.3839272E3,2.1642664E2,8.794818E1,5.557733E1,4.3702282E1,2.348993E1,2.6755608E1,5.4222176E1,3.7658447E1,5.4068886E1,1.3176058E1,9.478004E0,2.5498047E0,9.801656E0,9.587189E0,1.1197327E1,5.9069934E0,3.3387146E0,2.6550415E1,8.718767E0,4.1850586E1,6.0495987E0,7.77703E0,1.0407646E1,2.9036407E0,0E0,8.935364E0,5.8882656E0,6.8142486E0,0E0,9.042206E0,0E0,0E0,0E0,0E0,0E0,0E0,0E0,0E0,0E0,0E0,0E0,0E0,0E0,0E0,0E0,0E0,0E0,0E0,0E0,0E0,0E0,0E0,0E0,0E0,0E0,0E0,0E0,0E0],"parents":[2147483647,0,0,1,1,2,2,3,3,4,4,5,5,6,6,7,7,8,8,9,9,10,10,11,11,12,12,13,13,14,14,15,15,16,16,17,17,18,18,19,19,20,20,21,21,22,22,23,23,24,24,26,26,27,27,28,28,30,30],"right_children":[2,4,6,8,10,12,14,16,18,20,22,24,26,28,30,32,34,36,38,40,42,44,46,48,50,-1,52,54,56,-1,58,-1,-1,-1,-1,-1,-1,-1,-1,-1,-1,-1,-1,-1,-1,-1,-1,-1,-1,-1,-1,-1,-1,-1,-1,-1,-1,-1,-1],"split_conditions":[3.708072E-1,2.4205412E-1,9.447364E-1,1.3837662E-1,1.8483357E-1,2.4205412E-1,1.5693889E0,-5.419888E-1,-2.2728588E-2,-1.5733931E0,9.338647E-2,1.5693889E0,-1.0963963E0,1.1604294E0,9.6630573E-1,-6.596873E-1,3.318852E-1,2.30748E-1,4.0093315E-1,-1.5091857E0,-1.1707137E0,6.21197E-1,8.3149505E-1,8.3149505E-1,-3.4610292E-1,-8.9046605E-2,-1.3117437E0,1.0182346E0,1.5347862E0,4.5297988E-2,1.4482039E0,2.8372481E-2,5.642416E-2,1.576033E-2,-2.0805357E-2,7.928439E-2,3.2538258E-2,2.7179554E-2,5.467477E-2,-3.0380476E-2,3.92433E-2,-6.245464E-2,-7.724335E-3,1.4425418E-2,4.7266252E-2,-4.326507E-2,9.755484E-3,-6.812041E-2,-2.4355125E-2,-3.306816E-2,-8.6161815E-2,1.4550871E-2,-7.761953E-2,3.1164294E-2,-4.8923593E-2,4.7947075E-3,-3.2636106E-2,-8.234944E-2,-4.3013822E-2],"split_indices":[14,8,17,17,17,8,14,20,20,20,9,14,20,17,17,17,5,11,16,17,17,17,15,15,17,0,17,20,3,0,20,0,0,0,0,0,0,0,0,0,0,0,0,0,0,0,0,0,0,0,0,0,0,0,0,0,0,0,0],"split_type":[0,0,0,0,0,0,0,0,0,0,0,0,0,0,0,0,0,0,0,0,0,0,0,0,0,0,0,0,0,0,0,0,0,0,0,0,0,0,0,0,0,0,0,0,0,0,0,0,0,0,0,0,0,0,0,0,0,0,0],"sum_hessian":[1.6390789E3,1.0741267E3,5.649521E2,7.939179E2,2.8020883E2,4.0276462E2,1.621875E2,2.1751584E2,5.764021E2,1.7922954E2,1.009793E2,8.729539E1,3.154692E2,8.928792E1,7.2899574E1,1.5164708E2,6.586875E1,1.3454553E2,4.4185657E2,3.9796787E1,1.3943274E2,6.2119633E1,3.8859673E1,6.1249138E1,2.6046253E1,1.5852655E2,1.5694267E2,2.2959066E1,6.632886E1,1.6319549E0,7.1267624E1,8.652272E1,6.512436E1,1.3111092E1,5.2757664E1,1.286498E2,5.895726E0,1.2609984E2,3.157567E2,4.3837442E0,3.5413044E1,6.7478485E1,7.195426E1,2.357309E1,3.8546543E1,7.821934E0,3.1037739E1,2.1248371E1,4.0000763E1,4.878226E0,2.1168028E1,2.379426E0,1.5456325E2,1.8838643E0,2.1075203E1,5.148512E1,1.4843735E1,2.485326E1,4.641436E1],"tree_param":{"num_deleted":"0","num_feature":"23","num_nodes":"59","size_leaf_vector":"1"}},{"base_weights":[3.5305596E-3,6.442051E-1,-1.235493E0,8.8289887E-1,-4.837071E-2,-1.4625456E0,-6.622209E-1,1.1601056E0,5.2668816E-1,-3.0112612E-1,4.6680552E-1,-1.1930147E0,-8.463126E-2,-2.7450752E-1,-1.0797695E0,7.5102067E-1,1.3703288E0,-1.8538667E-1,7.3334116E-1,4.9304998E-1,-5.495969E-1,1.2226641E0,4.906189E-5,-1.4019747E0,-6.56099E-1,-9.21578E-1,-6.1947424E-2,-5.2203625E-1,-1.3651172E0,4.9416937E-2,-8.954371E-3,8.224473E-2,6.216357E-2,1.6152536E-2,-3.215278E-2,4.9506545E-2,1.8503526E-2,-5.3253848E-2,3.3297688E-2,-1.9077785E-2,-7.4518286E-2,7.245336E-2,4.3680113E-2,1.0819961E-2,-3.545607E-2,-7.665883E-2,-4.2867433E-2,-5.746389E-2,-5.5380426E-3,5.4701548E-2,-6.15228E-2,-1.386848E-2,3.194678E-2,-6.768958E-3,-6.994834E-2,-2.2869973E-2,-7.8719616E-2],"categories":[],"categories_nodes":[],"categories_segments":[],"categories_sizes":[],"default_left":[0,0,0,0,0,0,0,0,0,0,0,0,0,0,0,0,0,0,0,0,0,0,0,0,0,0,0,0,0,0,0,0,0,0,0,0,0,0,0,0,0,0,0,0,0,0,0,0,0,0,0,0,0,0,0,0,0],"id":2,"left_children":[1,3,5,7,9,11,13,15,17,19,21,23,-1,25,27,29,31,33,35,37,39,41,43,45,47,49,51,53,55,-1,-1,-1,-1,-1,-1,-1,-1,-1,-1,-1,-1,-1,-1,-1,-1,-1,-1,-1,-1,-1,-1,-1,-1,-1,-1,-1,-1],"loss_changes":[1.3159756E3,1.8068903E2,7.25791E1,7.964014E1,3.6734608E1,2.3028625E1,2.5950737E1,3.8204712E1,5.2743988E1,3.7594055E1,3.277172E1,2.0329315E1,0E0,1.1690259E1,1.1656464E1,3.4847984E1,8.425476E0,1.9105837E1,2.5500671E1,1.299443E1,2.2281368E1,1.5366402E0,9.117942E0,8.364716E0,1.4648724E1,1.4449596E1,1.0046022E1,9.278992E0,8.929283E0,0E0,0E0,0E0,0E0,0E0,0E0,0E0,0E0,0E0,0E0,0E0,0E0,0E0,0E0,0E0,0E0,0E0,0E0,0E0,0E0,0E0,0E0,0E0,0E0,0E0,0E0,0E0,0E0],"parents":[2147483647,0,0,1,1,2,2,3,3,4,4,5,5,6,6,7,7,8,8,9,9,10,10,11,11,13,13,14,14,15,15,16,16,17,17,18,18,19,19,20,20,21,21,22,22,23,23,24,24,25,25,26,26,27,27,28,28],"right_children":[2,4,6,8,10,12,14,16,18,20,22,24,-1,26,28,30,32,34,36,38,40,42,44,46,48,50,52,54,56,-1,-1,-1,-1,-1,-1,-1,-1,-1,-1,-1,-1,-1,-1,-1,-1,-1,-1,-1,-1,-1,-1,-1,-1,-1,-1,-1,-1],"split_conditions":[3.708072E-1,2.30748E-1,9.447364E-1,-5.0912076E-1,4.80167E-1,1.5693889E0,1.892212E0,1.7417893E-1,1.7417893E-1,-1.5733931E0,-3.422397E-1,3.619828E-1,-8.463126E-2,8.3149505E-1,1.5693889E0,-8.882099E-1,-9.6377033E-1,3.318852E-1,2.5331426E-1,4.0093315E-1,-4.8309278E-1,-7.573394E-1,8.2439214E-1,1.1318187E0,4.0093315E-1,-1.6915719E-1,1.6649165E0,1.5347862E0,9.338647E-2,4.9416937E-2,-8.954371E-3,8.224473E-2,6.216357E-2,1.6152536E-2,-3.215278E-2,4.9506545E-2,1.8503526E-2,-5.3253848E-2,3.3297688E-2,-1.9077785E-2,-7.4518286E-2,7.245336E-2,4.3680113E-2,1.0819961E-2,-3.545607E-2,-7.665883E-2,-4.2867433E-2,-5.746389E-2,-5.5380426E-3,5.4701548E-2,-6.15228E-2,-1.386848E-2,3.194678E-2,-6.768958E-3,-6.994834E-2,-2.2869973E-2,-7.8719616E-2],"split_indices":[14,11,17,19,17,14,18,7,7,20,18,20,0,15,14,18,18,5,18,16,18,18,19,13,16,18,18,3,9,0,0,0,0,0,0,0,0,0,0,0,0,0,0,0,0,0,0,0,0,0,0,0,0,0,0,0,0],"split_type":[0,0,0,0,0,0,0,0,0,0,0,0,0,0,0,0,0,0,0,0,0,0,0,0,0,0,0,0,0,0,0,0,0,0,0,0,0,0,0,0,0,0,0,0,0,0,0,0,0,0,0,0,0,0,0,0,0],"sum_hessian":[1.6557924E3,1.09175E3,5.640423E2,8.117191E2,2.8003088E2,4.0291193E2,1.6113036E2,4.5521194E2,3.565072E2,1.8814084E2,9.1890045E1,1.8839658E2,2.1451535E2,8.440956E1,7.6720795E1,1.5607317E2,2.9913876E2,8.0213684E1,2.7629352E2,4.4600834E1,1.4354001E2,3.4462494E1,5.742755E1,1.3445676E2,5.393982E1,2.0047085E1,6.436247E1,2.6924448E1,4.979635E1,1.2429625E2,3.1776917E1,9.085623E1,2.0828253E2,3.8138584E1,4.20751E1,1.6085927E2,1.1543424E2,3.939548E0,4.0661285E1,1.2297895E2,2.0561058E1,1.8992538E1,1.5469957E1,4.4535683E1,1.2891868E1,1.0689127E2,2.7565481E1,2.774293E1,2.619689E1,2.326084E0,1.7721003E1,4.969314E1,1.4669339E1,1.9486721E1,7.4377265E0,9.926482E0,3.9869865E1],"tree_param":{"num_deleted":"0","num_feature":"23","num_nodes":"57","size_leaf_vector":"1"}},{"base_weights":[-1.0628895E-3,5.9338063E-1,-1.1461222E0,8.415952E-1,-9.902364E-2,-1.3390297E0,-4.746662E-1,1.1438571E0,4.979779E-1,-2.7527416E-1,6.3052464E-1,-1.0626223E0,-1.5885816E0,-1.8130694E-1,-1.2901556E0,7.165913E-1,1.3459613E0,-1.9493239E-1,7.283625E-1,2.1763845E-1,-5.244881E-1,1.5418868E0,-3.8014778E-1,-1.2992918E0,-6.034603E-1,-1.3216401E0,-1.645029E0,1.1457925E-2,-5.491038E-1,-2.3994903E-1,-1.4083185E0,4.281545E-2,-1.9741513E-2,5.735265E-2,7.2884314E-2,-2.5042216E-3,-3.240892E-2,1.7736627E-2,4.4593085E-2,4.9087065E-3,7.380944E-2,-4.824667E-2,-1.1470389E-2,2.449928E-2,7.9725586E-2,-6.1720468E-2,-7.5563304E-3,-7.033741E-2,-3.4332152E-2,2.0344926E-2,-3.4890417E-2,-7.61619E-2,-4.6726357E-2,-8.342422E-2,-5.8856215E-2,1.4828046E-2,-2.2293165E-2,-5.8761533E-2,-1.0975177E-2,2.5861312E-2,-5.469061E-2,-2.9577432E-2,-7.668885E-2],"categories":[],"categories_nodes":[],"categories_segments":[],"categories_sizes":[],"default_left":[0,0,0,0,0,0,0,0,0,0,0,0,0,0,0,0,0,0,0,0,0,0,0,0,0,1,0,0,0,0,0,0,0,0,0,0,0,0,0,0,0,0,0,0,0,0,0,0,0,0,0,0,0,0,0,0,0,0,0,0,0,0,0],"id":3,"left_children":[1,3,5,7,9,11,13,15,17,19,21,23,25,27,29,31,33,35,37,39,41,43,45,47,49,51,53,55,57,59,61,-1,-1,-1,-1,-1,-1,-1,-1,-1,-1,-1,-1,-1,-1,-1,-1,-1,-1,-1,-1,-1,-1,-1,-1,-1,-1,-1,-1,-1,-1,-1,-1],"loss_changes":[1.12597E3,1.8722855E2,7.258612E1,8.269354E1,3.72365E1,2.8564453E1,3.0318428E1,3.5798096E1,6.03151E1,2.8717709E1,5.252619E1,2.215767E1,1.2684326E0,6.747772E0,3.8346329E0,2.1899315E1,4.725525E0,6.194249E0,1.6977402E1,1.17179165E1,1.9917034E1,8.7107086E-1,5.201546E0,8.148102E0,7.306795E0,2.085678E0,6.088257E-2,8.394373E0,6.4942303E0,3.5435808E0,2.1686516E0,0E0,0E0,0E0,0E0,0E0,0E0,0E0,0E0,0E0,0E0,0E0,0E0,0E0,0E0,0E0,0E0,0E0,0E0,0E0,0E0,0E0,0E0,0E0,0E0,0E0,0E0,0E0,0E0,0E0,0E0,0E0,0E0],"parents":[2147483647,0,0,1,1,2,2,3,3,4,4,5,5,6,6,7,7,8,8,9,9,10,10,11,11,12,12,13,13,14,14,15,15,16,16,17,17,18,18,19,19,20,20,21,21,22,22,23,23,24,24,25,25,26,26,27,27,28,28,29,29,30,30],"right_children":[2,4,6,8,10,12,14,16,18,20,22,24,26,28,30,32,34,36,38,40,42,44,46,48,50,52,54,56,58,60,62,-1,-1,-1,-1,-1,-1,-1,-1,-1,-1,-1,-1,-1,-1,-1,-1,-1,-1,-1,-1,-1,-1,-1,-1,-1,-1,-1,-1,-1,-1,-1,-1],"split_conditions":[3.708072E-1,2.4205412E-1,1.1604294E0,-8.745664E-1,8.833469E-1,1.5693889E0,1.5677776E0,3.7166853E-2,2.959984E-1,-1.1595066E0,2.5331426E-1,1.1318187E0,9.338647E-2,1.5693889E0,1.3064369E0,-3.145786E-1,3.5738793E-1,2.30748E-1,4.0093315E-1,2.2636063E0,-8.438559E-1,-1.2002122E0,7.724521E-1,5.813768E-1,-5.006007E-1,1.0721709E0,2.2636063E0,1.3794407E0,1.3578714E0,2.4205412E-1,1.5693889E0,4.281545E-2,-1.9741513E-2,5.735265E-2,7.2884314E-2,-2.5042216E-3,-3.240892E-2,1.7736627E-2,4.4593085E-2,4.9087065E-3,7.380944E-2,-4.824667E-2,-1.1470389E-2,2.449928E-2,7.9725586E-2,-6.1720468E-2,-7.5563304E-3,-7.033741E-2,-3.4332152E-2,2.0344926E-2,-3.4890417E-2,-7.61619E-2,-4.6726357E-2,-8.342422E-2,-5.8856215E-2,1.4828046E-2,-2.2293165E-2,-5.8761533E-2,-1.0975177E-2,2.5861312E-2,-5.469061E-2,-2.9577432E-2,-7.668885E-2],"split_indices":[14,8,17,4,17,14,4,17,17,4,18,13,9,14,17,17,17,11,16,1,17,4,18,17,18,18,1,17,17,8,14,0,0,0,0,0,0,0,0,0,0,0,0,0,0,0,0,0,0,0,0,0,0,0,0,0,0,0,0,0,0,0,0],"split_type":[0,0,0,0,0,0,0,0,0,0,0,0,0,0,0,0,0,0,0,0,0,0,0,0,0,0,0,0,0,0,0,0,0,0,0,0,0,0,0,0,0,0,0,0,0,0,0,0,0,0,0,0,0,0,0,0,0,0,0,0,0,0,0],"sum_hessian":[1.6522018E3,1.0879089E3,5.642928E2,8.006682E2,2.8724072E2,4.3758237E2,1.2671043E2,4.2472833E2,3.7593988E2,2.3185088E2,5.5389847E1,2.101146E2,2.2746779E2,9.408661E1,3.262382E1,1.3784908E2,2.8687924E2,9.384458E1,2.820953E2,7.790052E1,1.5395036E2,2.884952E1,2.6540327E1,1.3744205E2,7.267255E1,4.3965824E1,1.8350195E2,6.236797E1,3.1718636E1,3.605911E0,2.9017912E1,1.2265905E2,1.519003E1,1.0723366E2,1.796456E2,7.195861E1,2.1885967E1,8.683307E1,1.9526224E2,7.213164E1,5.7688856E0,6.085154E1,9.3098816E1,1.8657869E0,2.6983732E1,4.6829033E0,2.1857424E1,1.15829765E2,2.1612284E1,5.9237046E0,6.674884E1,2.6980335E1,1.6985487E1,1.7229903E2,1.12029295E1,3.863419E1,2.3733782E1,1.0053959E1,2.1664677E1,2.1201181E0,1.4857931E0,4.6247244E0,2.4393187E1],"tree_param":{"num_deleted":"0","num_feature":"23","num_nodes":"63","size_leaf_vector":"1"}},{"base_weights":[-1.8160369E-3,5.765777E-1,-1.0927305E0,8.1336313E-1,-8.207986E-2,-5.8422196E-1,-1.3172667E0,3.6074704E-1,9.801915E-1,3.441352E-1,-3.654774E-1,-8.6928755E-1,-1.875133E-1,-1.4268507E0,-6.656559E-1,7.7505887E-1,-4.5297384E-1,1.2613971E0,6.0428524E-1,3.256675E-2,8.24186E-1,3.2124248E-1,-5.724809E-1,-1.2118397E0,-5.0090605E-1,-6.430386E-1,1.9083707E-1,-1.2035E0,-7.944806E-2,1.2442148E-1,-1.2175517E0,5.4951977E-2,2.5834689E-2,1.0089964E-2,-4.451479E-2,7.504981E-2,5.8114428E-2,8.001961E-3,3.7425186E-2,1.6549198E-2,-2.7692715E-2,6.214456E-2,1.3859734E-2,-7.428806E-2,2.5337731E-2,-3.9253637E-2,7.4917185E-3,1.5827483E-2,-7.161015E-2,-4.91856E-2,-4.1649523E-3,-5.6619763E-2,-1.2511988E-2,2.2728315E-2,-3.746126E-2,-6.717177E-2,-2.6117021E-2,2.2859788E-2,-7.4535236E-2,-2.485003E-2,-7.162036E-2],"categories":[],"categories_nodes":[],"categories_segments":[],"categories_sizes":[],"default_left":[0,0,0,0,0,0,1,0,0,0,0,0,1,0,0,0,0,0,0,0,0,0,0,0,0,0,0,0,0,0,0,0,0,0,0,0,0,0,0,0,0,0,0,0,0,0,0,0,0,0,0,0,0,0,0,0,0,0,0,0,0],"id":4,"left_children":[1,3,5,7,9,11,13,15,17,19,21,23,25,27,29,31,33,35,37,39,41,43,45,47,49,51,53,55,-1,57,59,-1,-1,-1,-1,-1,-1,-1,-1,-1,-1,-1,-1,-1,-1,-1,-1,-1,-1,-1,-1,-1,-1,-1,-1,-1,-1,-1,-1,-1,-1],"loss_changes":[1.032461E3,1.6684097E2,6.396411E1,5.9046448E1,3.439064E1,1.9679169E1,2.707666E1,7.231067E1,5.993622E1,1.6995117E1,2.4473671E1,1.2241608E1,1.2986436E1,1.02213745E1,2.5607162E1,1.1301727E1,2.0980705E1,6.0338745E0,1.574675E1,1.24429035E1,9.904808E0,1.4234623E1,2.0334003E1,1.7985527E1,1.0153426E1,6.270134E0,1.0640239E1,1.3125015E1,0E0,1.407327E1,4.6234665E0,0E0,0E0,0E0,0E0,0E0,0E0,0E0,0E0,0E0,0E0,0E0,0E0,0E0,0E0,0E0,0E0,0E0,0E0,0E0,0E0,0E0,0E0,0E0,0E0,0E0,0E0,0E0,0E0,0E0,0E0],"parents":[2147483647,0,0,1,1,2,2,3,3,4,4,5,5,6,6,7,7,8,8,9,9,10,10,11,11,12,12,13,13,14,14,15,15,16,16,17,17,18,18,19,19,20,20,21,21,22,22,23,23,24,24,25,25,26,26,27,27,29,29,30,30],"right_children":[2,4,6,8,10,12,14,16,18,20,22,24,26,28,30,32,34,36,38,40,42,44,46,48,50,52,54,56,-1,58,60,-1,-1,-1,-1,-1,-1,-1,-1,-1,-1,-1,-1,-1,-1,-1,-1,-1,-1,-1,-1,-1,-1,-1,-1,-1,-1,-1,-1,-1,-1],"split_conditions":[3.708072E-1,2.4205412E-1,2.4205412E-1,1.7417893E-1,9.338647E-2,4.0093315E-1,1.3780725E0,-7.970942E-1,-4.6795437E-1,6.412677E-3,-9.996637E-1,1.0093032E0,7.4523765E-1,1.5693889E0,2.0397568E0,-9.757275E-1,3.318852E-1,-9.6377033E-1,5.5253208E-2,-5.08126E-1,-2.3828928E-1,4.0093315E-1,5.961864E-1,-4.8309278E-1,9.9433625E-1,9.9433625E-1,1.5693889E0,1.2204918E0,-7.944806E-2,2.0822852E0,1.0317425E0,5.4951977E-2,2.5834689E-2,1.0089964E-2,-4.451479E-2,7.504981E-2,5.8114428E-2,8.001961E-3,3.7425186E-2,1.6549198E-2,-2.7692715E-2,6.214456E-2,1.3859734E-2,-7.428806E-2,2.5337731E-2,-3.9253637E-2,7.4917185E-3,1.5827483E-2,-7.161015E-2,-4.91856E-2,-4.1649523E-3,-5.6619763E-2,-1.2511988E-2,2.2728315E-2,-3.746126E-2,-6.717177E-2,-2.6117021E-2,2.2859788E-2,-7.4535236E-2,-2.485003E-2,-7.162036E-2],"split_indices":[14,8,8,7,9,16,20,18,18,12,18,20,20,14,18,18,5,18,6,18,18,16,20,18,0,0,14,21,0,21,2,0,0,0,0,0,0,0,0,0,0,0,0,0,0,0,0,0,0,0,0,0,0,0,0,0,0,0,0,0,0],"split_type":[0,0,0,0,0,0,0,0,0,0,0,0,0,0,0,0,0,0,0,0,0,0,0,0,0,0,0,0,0,0,0,0,0,0,0,0,0,0,0,0,0,0,0,0,0,0,0,0,0,0,0,0,0,0,0,0,0,0,0,0,0],"sum_hessian":[1.6342881E3,1.0683364E3,5.659516E2,7.8565936E2,2.8267703E2,1.744578E2,3.9149384E2,2.1244496E2,5.732144E2,1.1280696E2,1.6987007E2,1.008198E2,7.3638E1,3.3411465E2,5.7379166E1,1.408021E2,7.164288E1,3.2656454E2,2.4664987E2,6.9055534E1,4.3751427E1,3.9217346E1,1.3065273E2,5.1054955E1,4.9764843E1,3.3093998E1,4.0544003E1,1.4405882E2,1.9005583E2,2.391612E1,3.3463043E1,6.1025032E1,7.9777054E1,2.890456E1,4.2738323E1,9.141645E1,2.3514809E2,6.0964973E1,1.856849E2,4.605481E1,2.3000727E1,2.4061132E1,1.9690294E1,2.9987442E0,3.62186E1,1.00876015E2,2.9776712E1,6.3785195E0,4.4676437E1,2.2451965E1,2.7312876E1,1.3897419E1,1.9196577E1,3.2064842E1,8.479161E0,1.1870099E2,2.5357834E1,2.0424803E1,3.4913175E0,8.447209E0,2.5015835E1],"tree_param":{"num_deleted":"0","num_feature":"23","num_nodes":"61","size_leaf_vector":"1"}},{"base_weights":[-1.7412813E-2,5.4747516E-1,-1.1179752E0,7.546346E-1,-5.6496263E-2,-1.3130908E0,-6.271361E-1,1.0437521E0,4.5121804E-1,-3.1437084E-1,4.5245087E-1,-1.090065E0,-7.489226E-2,-4.6748278E-1,-1.4491019E0,6.831047E-1,1.2290688E0,-1.6336858E-1,6.304637E-1,-8.1454866E-2,-1.0816228E0,9.048093E-1,-2.2490825E-1,-1.2952582E0,-5.612835E-1,-1.0262926E0,-2.8174907E-1,-8.2022953E-1,-8.166651E-2,3.855921E-2,-5.070054E-2,5.3175718E-2,7.134089E-2,1.6704073E-2,-2.6693359E-2,3.6088616E-2,-2.198085E-3,2.3308633E-2,-1.2922371E-2,-1.0186057E-2,-6.268838E-2,5.752973E-2,2.4705298E-2,-4.0914807E-2,7.040502E-3,-7.045321E-2,-5.006483E-2,-6.2277805E-2,-9.271209E-4,4.098781E-2,-5.7409715E-2,1.3998436E-2,-3.1713843E-2,-6.956909E-2,1.1006228E-2],"categories":[],"categories_nodes":[],"categories_segments":[],"categories_sizes":[],"default_left":[0,0,0,0,0,0,0,0,0,0,0,0,0,0,0,0,0,0,0,0,0,0,0,0,0,0,0,0,0,0,0,0,0,0,0,0,0,0,0,0,0,0,0,0,0,0,0,0,0,0,0,0,0,0,0],"id":5,"left_children":[1,3,5,7,9,11,13,15,17,19,21,23,-1,25,27,29,31,33,35,37,39,41,43,45,47,49,51,53,-1,-1,-1,-1,-1,-1,-1,-1,-1,-1,-1,-1,-1,-1,-1,-1,-1,-1,-1,-1,-1,-1,-1,-1,-1,-1,-1],"loss_changes":[1.00746344E3,1.3403033E2,5.1815735E1,6.9484314E1,3.615973E1,1.4535461E1,2.0090462E1,2.6401215E1,4.316175E1,3.25671E1,2.8607077E1,1.8960983E1,0E0,1.3617964E1,1.5871696E0,2.1798927E1,7.256073E0,1.6590912E1,1.8679413E1,1.3812201E1,6.163311E0,5.0621223E0,8.344107E0,2.9368439E0,1.9471632E1,8.378136E0,2.0364975E1,4.9010696E0,0E0,0E0,0E0,0E0,0E0,0E0,0E0,0E0,0E0,0E0,0E0,0E0,0E0,0E0,0E0,0E0,0E0,0E0,0E0,0E0,0E0,0E0,0E0,0E0,0E0,0E0,0E0],"parents":[2147483647,0,0,1,1,2,2,3,3,4,4,5,5,6,6,7,7,8,8,9,9,10,10,11,11,13,13,14,14,15,15,16,16,17,17,18,18,19,19,20,20,21,21,22,22,23,23,24,24,25,25,26,26,27,27],"right_children":[2,4,6,8,10,12,14,16,18,20,22,24,-1,26,28,30,32,34,36,38,40,42,44,46,48,50,52,54,-1,-1,-1,-1,-1,-1,-1,-1,-1,-1,-1,-1,-1,-1,-1,-1,-1,-1,-1,-1,-1,-1,-1,-1,-1,-1,-1],"split_conditions":[3.708072E-1,2.30748E-1,9.447364E-1,-8.745664E-1,4.7021192E-1,1.5693889E0,1.6084834E0,3.7166853E-2,1.7417893E-1,-5.8962625E-1,-1.4186317E-1,1.1318187E0,-7.489226E-2,8.3149505E-1,1.3064369E0,-2.7973586E-1,5.5253208E-2,3.318852E-1,8.757802E-1,9.338647E-2,-1.5008898E0,-3.422397E-1,1.0758114E0,1.2273076E0,9.9433625E-1,-7.117435E-1,9.338647E-2,1.2732534E0,-8.166651E-2,3.855921E-2,-5.070054E-2,5.3175718E-2,7.134089E-2,1.6704073E-2,-2.6693359E-2,3.6088616E-2,-2.198085E-3,2.3308633E-2,-1.2922371E-2,-1.0186057E-2,-6.268838E-2,5.752973E-2,2.4705298E-2,-4.0914807E-2,7.040502E-3,-7.045321E-2,-5.006483E-2,-6.2277805E-2,-9.271209E-4,4.098781E-2,-5.7409715E-2,1.3998436E-2,-3.1713843E-2,-6.956909E-2,1.1006228E-2],"split_indices":[14,11,17,4,17,14,4,17,7,4,4,13,0,15,17,17,6,5,4,9,17,18,17,9,0,4,9,17,0,0,0,0,0,0,0,0,0,0,0,0,0,0,0,0,0,0,0,0,0,0,0,0,0,0,0],"split_type":[0,0,0,0,0,0,0,0,0,0,0,0,0,0,0,0,0,0,0,0,0,0,0,0,0,0,0,0,0,0,0,0,0,0,0,0,0,0,0,0,0,0,0,0,0,0,0,0,0,0,0,0,0,0,0],"sum_hessian":[1.6185275E3,1.069887E3,5.4864056E2,7.964565E2,2.7343042E2,3.9138443E2,1.5725616E2,4.0658896E2,3.8986752E2,1.8173221E2,9.169821E1,1.804521E2,2.1093231E2,1.3299316E2,2.4262999E1,1.3959918E2,2.6698978E2,8.8051285E1,3.0181625E2,1.4025954E2,4.147266E1,5.4779327E1,3.6918884E1,1.2895985E2,5.149226E1,3.2047497E1,1.0094567E2,6.7327285E0,1.753027E1,1.3323018E2,6.3689947E0,1.487964E2,1.1819338E2,3.7628143E1,5.042314E1,2.657649E2,3.6051376E1,3.386011E1,1.0639944E2,7.1569834E0,3.4315678E1,3.314324E1,2.1636086E1,1.3605723E1,2.331316E1,9.023312E1,3.872673E1,2.2203623E1,2.9288637E1,1.6305251E0,3.0416971E1,3.9003433E1,6.1942238E1,4.12868E0,2.6040485E0],"tree_param":{"num_deleted":"0","num_feature":"23","num_nodes":"55","size_leaf_vector":"1"}},{"base_weights":[-2.3260543E-5,5.258272E-1,-1.0293001E0,7.5274664E-1,-1.1212493E-1,-5.1318157E-1,-1.2583194E0,9.999448E-1,4.283908E-1,-2.8053075E-1,2.969044E-1,-7.700651E-1,-1.5159363E-1,-1.3624119E0,-6.218803E-1,5.8978957E-1,1.217006E0,-3.298507E-1,6.105937E-1,4.0048882E-1,-4.613242E-1,4.3806568E-1,-8.8858753E-1,1.6057082E-1,-8.759878E-1,-2.742973E-1,9.197915E-1,-7.24555E-2,-1.1289191E0,1.9651356E-1,-1.1764613E0,3.811694E-2,-3.70929E-3,5.5179268E-2,6.919309E-2,-7.939201E-3,-8.1162065E-2,-5.942289E-4,3.594887E-2,-2.2004042E-2,2.7003765E-2,-4.9637567E-2,-9.689296E-3,-4.5417394E-2,2.6055096E-2,3.304716E-3,-6.446745E-2,4.7473308E-2,-1.8854091E-2,-6.300899E-2,-2.5070772E-2,-3.415551E-4,-2.8942598E-2,6.799042E-2,-1.2271377E-2,-3.386815E-2,-7.2049186E-2,2.185054E-2,-6.403511E-2,-2.7747035E-2,-7.006918E-2],"categories":[],"categories_nodes":[],"categories_segments":[],"categories_sizes":[],"default_left":[0,0,0,0,0,0,1,0,0,0,0,0,1,1,0,0,0,0,0,0,0,0,0,0,0,0,0,0,0,0,0,0,0,0,0,0,0,0,0,0,0,0,0,0,0,0,0,0,0,0,0,0,0,0,0,0,0,0,0,0,0],"id":6,"left_children":[1,3,5,7,9,11,13,15,17,19,21,23,25,27,29,31,33,35,37,39,41,43,45,47,49,51,53,-1,55,57,59,-1,-1,-1,-1,-1,-1,-1,-1,-1,-1,-1,-1,-1,-1,-1,-1,-1,-1,-1,-1,-1,-1,-1,-1,-1,-1,-1,-1,-1,-1],"loss_changes":[8.702257E2,1.5413498E2,6.3616394E1,6.2519226E1,1.9375725E1,1.5561115E1,2.4054382E1,3.88804E1,4.7352814E1,2.4674995E1,1.4139772E1,9.84396E0,9.632269E0,4.8865967E0,2.5046495E1,1.7913818E1,3.9594116E0,1.4516068E1,1.8597198E1,5.1964393E0,2.2221085E1,8.757257E0,3.556644E0,4.9829245E0,1.2108467E1,5.2736397E0,4.21072E0,0E0,1.1955635E1,8.710104E0,3.7982864E0,0E0,0E0,0E0,0E0,0E0,0E0,0E0,0E0,0E0,0E0,0E0,0E0,0E0,0E0,0E0,0E0,0E0,0E0,0E0,0E0,0E0,0E0,0E0,0E0,0E0,0E0,0E0,0E0,0E0,0E0],"parents":[2147483647,0,0,1,1,2,2,3,3,4,4,5,5,6,6,7,7,8,8,9,9,10,10,11,11,12,12,13,13,14,14,15,15,16,16,17,17,18,18,19,19,20,20,21,21,22,22,23,23,24,24,25,25,26,26,28,28,29,29,30,30],"right_children":[2,4,6,8,10,12,14,16,18,20,22,24,26,28,30,32,34,36,38,40,42,44,46,48,50,52,54,-1,56,58,60,-1,-1,-1,-1,-1,-1,-1,-1,-1,-1,-1,-1,-1,-1,-1,-1,-1,-1,-1,-1,-1,-1,-1,-1,-1,-1,-1,-1,-1,-1],"split_conditions":[3.708072E-1,2.4205412E-1,2.4205412E-1,-5.0912076E-1,3.7299752E-1,4.0093315E-1,1.39464E0,1.7417893E-1,1.7417893E-1,-1.5733931E0,1.4598458E0,1.576357E-1,1.5648245E0,4.038606E-1,2.074992E0,-5.558935E-1,6.412677E-3,7.990746E-2,-5.3441155E-1,-1.0018358E0,-1.2769973E0,1.7417893E-1,2.8054994E-3,-4.6919337E-1,1.0093032E0,2.30748E-1,1.5693889E0,-7.24555E-2,1.5693889E0,2.0822852E0,1.0317425E0,3.811694E-2,-3.70929E-3,5.5179268E-2,6.919309E-2,-7.939201E-3,-8.1162065E-2,-5.942289E-4,3.594887E-2,-2.2004042E-2,2.7003765E-2,-4.9637567E-2,-9.689296E-3,-4.5417394E-2,2.6055096E-2,3.304716E-3,-6.446745E-2,4.7473308E-2,-1.8854091E-2,-6.300899E-2,-2.5070772E-2,-3.415551E-4,-2.8942598E-2,6.799042E-2,-1.2271377E-2,-3.386815E-2,-7.2049186E-2,2.185054E-2,-6.403511E-2,-2.7747035E-2,-7.006918E-2],"split_indices":[14,8,8,19,20,16,20,7,7,20,18,19,20,20,18,20,12,20,16,18,20,7,13,20,20,11,14,0,14,21,2,0,0,0,0,0,0,0,0,0,0,0,0,0,0,0,0,0,0,0,0,0,0,0,0,0,0,0,0,0,0],"split_type":[0,0,0,0,0,0,0,0,0,0,0,0,0,0,0,0,0,0,0,0,0,0,0,0,0,0,0,0,0,0,0,0,0,0,0,0,0,0,0,0,0,0,0,0,0,0,0,0,0,0,0,0,0,0,0,0,0,0,0,0,0],"sum_hessian":[1.6058201E3,1.0631521E3,5.4266797E2,7.840764E2,2.790757E2,1.6778595E2,3.7488205E2,4.4377985E2,3.4029657E2,1.9790732E2,8.116838E1,9.743522E1,7.035074E1,3.212066E2,5.367543E1,1.5486554E2,2.889143E2,6.577248E1,2.7452408E2,4.1262604E1,1.5664471E2,7.309513E1,8.073253E0,9.903879E0,8.7531334E1,6.3789078E1,6.5616603E0,2.3043687E2,9.076973E1,2.1941729E1,3.1733702E1,1.2280398E2,3.2061565E1,1.7653091E2,1.1238338E2,5.9081055E1,6.6914244E0,4.0842793E1,2.3368129E2,5.5697327E0,3.569287E1,5.1545715E1,1.05099E2,3.6687057E0,6.942642E1,2.6339107E0,5.439342E0,3.7036228E0,6.2002563E0,4.2043636E1,4.5487698E1,3.4506866E1,2.9282211E1,4.6417985E0,1.9198617E0,3.839006E1,5.2379673E1,1.9475239E1,2.4664886E0,9.353827E0,2.2379875E1],"tree_param":{"num_deleted":"0","num_feature":"23","num_nodes":"61","size_leaf_vector":"1"}},{"base_weights":[4.92566E-3,5.086158E-1,-9.9310803E-1,7.2007537E-1,-1.0587383E-1,-5.7213765E-1,-1.1881804E0,3.279562E-1,8.7427837E-1,-2.5637674E-1,5.4532063E-1,-7.5014794E-1,-2.3479962E-1,-1.2964894E0,-5.756768E-1,6.691505E-1,-2.7319992E-1,1.037707E0,4.9999028E-1,1.549096E-2,-7.044888E-1,7.798331E-1,-3.9685032E-1,-1.03833206E-1,-8.839346E-1,1.1032022E0,-3.2792714E-1,-1.217631E0,-7.389864E-2,1.9012605E-1,-1.0501614E0,3.856924E-2,4.7572157E-3,-8.185351E-3,-6.5066E-2,6.858716E-2,4.7743876E-2,1.4460923E-2,4.921448E-2,-7.001225E-3,4.577853E-2,-2.4952814E-2,-6.184878E-2,-4.2630594E-2,4.552725E-2,4.142561E-3,-7.342483E-2,1.4865949E-2,-3.2196313E-2,-5.7879366E-2,-2.3118636E-2,6.758846E-2,1.225974E-2,-1.2500109E-2,-6.71973E-2,-4.922333E-2,-6.8021394E-2,2.5348721E-2,-6.735047E-2,-1.139697E-2,-6.595775E-2],"categories":[],"categories_nodes":[],"categories_segments":[],"categories_sizes":[],"default_left":[0,0,0,0,0,0,0,0,0,0,0,0,0,0,0,0,0,0,0,0,0,0,0,0,0,0,0,0,0,0,0,0,0,0,0,0,0,0,0,0,0,0,0,0,0,0,0,0,0,0,0,0,0,0,0,0,0,0,0,0,0],"id":7,"left_children":[1,3,5,7,9,11,13,15,17,19,21,23,25,27,29,31,33,35,37,39,41,43,45,47,49,51,53,55,-1,57,59,-1,-1,-1,-1,-1,-1,-1,-1,-1,-1,-1,-1,-1,-1,-1,-1,-1,-1,-1,-1,-1,-1,-1,-1,-1,-1,-1,-1,-1,-1],"loss_changes":[8.1824884E2,1.4063925E2,4.415332E1,4.838434E1,2.7368317E1,1.0320869E1,2.3941345E1,4.7111774E1,3.478412E1,2.758619E1,1.1904001E1,9.762924E0,8.066889E0,2.7146606E0,2.1171669E1,8.508873E0,9.192379E0,9.779388E0,1.7817486E1,1.9984694E1,8.734585E0,9.813948E0,5.8386946E0,4.6716814E0,1.0342232E1,5.756016E-1,4.3022523E0,6.1707153E0,0E0,1.1849138E1,7.6150436E0,0E0,0E0,0E0,0E0,0E0,0E0,0E0,0E0,0E0,0E0,0E0,0E0,0E0,0E0,0E0,0E0,0E0,0E0,0E0,0E0,0E0,0E0,0E0,0E0,0E0,0E0,0E0,0E0,0E0,0E0],"parents":[2147483647,0,0,1,1,2,2,3,3,4,4,5,5,6,6,7,7,8,8,9,9,10,10,11,11,12,12,13,13,14,14,15,15,16,16,17,17,18,18,19,19,20,20,21,21,22,22,23,23,24,24,25,25,26,26,27,27,29,29,30,30],"right_children":[2,4,6,8,10,12,14,16,18,20,22,24,26,28,30,32,34,36,38,40,42,44,46,48,50,52,54,56,-1,58,60,-1,-1,-1,-1,-1,-1,-1,-1,-1,-1,-1,-1,-1,-1,-1,-1,-1,-1,-1,-1,-1,-1,-1,-1,-1,-1,-1,-1,-1,-1],"split_conditions":[3.708072E-1,2.30748E-1,2.4205412E-1,1.7417893E-1,1.0276953E0,1.1604294E0,1.2516841E0,-5.419888E-1,1.576357E-1,-5.0912076E-1,8.2439214E-1,1.576357E-1,1.1687253E0,1.3362778E0,1.4911486E0,-5.0912076E-1,1.3195178E-1,-4.8028082E-1,1.2361819E0,3.844987E-3,1.3362778E0,2.8054994E-3,1.5149872E0,2.30748E-1,4.0093315E-1,1.2123218E0,1.5304258E0,1.5693889E0,-7.389864E-2,2.0822852E0,1.0317425E0,3.856924E-2,4.7572157E-3,-8.185351E-3,-6.5066E-2,6.858716E-2,4.7743876E-2,1.4460923E-2,4.921448E-2,-7.001225E-3,4.577853E-2,-2.4952814E-2,-6.184878E-2,-4.2630594E-2,4.552725E-2,4.142561E-3,-7.342483E-2,1.4865949E-2,-3.2196313E-2,-5.7879366E-2,-2.3118636E-2,6.758846E-2,1.225974E-2,-1.2500109E-2,-6.71973E-2,-4.922333E-2,-6.8021394E-2,2.5348721E-2,-6.735047E-2,-1.139697E-2,-6.595775E-2],"split_indices":[14,11,8,7,17,17,17,20,19,19,19,19,17,16,19,19,20,20,20,20,16,13,20,11,16,20,17,14,0,21,2,0,0,0,0,0,0,0,0,0,0,0,0,0,0,0,0,0,0,0,0,0,0,0,0,0,0,0,0,0,0],"split_type":[0,0,0,0,0,0,0,0,0,0,0,0,0,0,0,0,0,0,0,0,0,0,0,0,0,0,0,0,0,0,0,0,0,0,0,0,0,0,0,0,0,0,0,0,0,0,0,0,0,0,0,0,0,0,0,0,0,0,0,0,0],"sum_hessian":[1.6257041E3,1.0807559E3,5.449482E2,8.0393286E2,2.7682306E2,1.738054E2,3.711428E2,2.2779782E2,5.76135E2,2.2534744E2,5.14756E1,1.1296895E2,6.0836456E1,3.1442618E2,5.6716637E1,1.4524751E2,8.255031E1,3.997961E2,1.7633893E2,1.4085608E2,8.449136E1,4.1354504E1,1.01211E1,1.9678669E1,9.3290276E1,3.2530072E0,5.758345E1,2.245596E2,8.986656E1,2.1926794E1,3.4789845E1,1.22997055E2,2.225046E1,7.5652664E1,6.8976407E0,7.63459E1,3.2345023E2,1.2397916E2,5.2359768E1,1.2082449E2,2.0031586E1,6.236736E1,2.2124004E1,2.6563864E0,3.8698116E1,7.6288724E0,2.492228E0,1.1549686E1,8.1289835E0,5.551035E1,3.7779926E1,2.0760849E0,1.1769222E0,5.4638905E1,2.944546E0,8.829016E1,1.3626944E2,1.873512E1,3.191672E0,9.031377E0,2.5758467E1],"tree_param":{"num_deleted":"0","num_feature":"23","num_nodes":"61","size_leaf_vector":"1"}},{"base_weights":[1.3240727E-2,4.9804634E-1,-9.3761605E-1,1.2326835E-1,7.1041834E-1,-1.2671009E0,-6.100158E-1,5.524146E-1,-2.50221E-1,1.0792824E0,4.1874155E-1,-1.3519677E0,-9.111958E-1,-1.947286E-1,-1.0585911E0,-5.246171E-1,6.5740633E-1,-5.449833E-1,7.137482E-2,7.367656E-1,1.1639344E0,-1.1655258E0,4.8653337E-1,-1.3623861E0,-4.4360527E-1,7.671777E-2,-9.9874073E-1,-5.0296664E-1,-4.554086E-2,-1.2299229E0,-6.5348226E-1,-4.186224E-3,-7.315821E-2,1.880055E-2,4.6153955E-2,-1.6430065E-2,-4.0206317E-2,1.8887058E-2,-1.0959545E-2,5.40541E-2,2.1387583E-2,5.14335E-2,6.723384E-2,-7.0850275E-2,-8.9703575E-3,3.1488515E-2,1.3311831E-3,-6.4927615E-2,-7.549183E-2,2.616598E-2,-5.001523E-2,-7.0277415E-2,-1.2542139E-2,1.8799292E-2,-3.3832557E-2,5.525567E-2,-4.387659E-3,6.2490716E-3,-6.400141E-2,-4.634809E-3,-7.526596E-2],"categories":[],"categories_nodes":[],"categories_segments":[],"categories_sizes":[],"default_left":[0,0,0,0,0,0,0,0,0,0,0,1,0,0,0,0,0,0,0,0,0,0,0,0,0,0,0,0,0,0,0,0,0,0,0,0,0,0,0,0,0,0,0,0,0,0,0,0,0,0,0,0,0,0,0,0,0,0,0,0,0],"id":8,"left_children":[1,3,5,7,9,11,13,15,17,19,21,23,25,27,29,31,33,35,37,39,41,43,45,47,49,-1,51,53,55,57,59,-1,-1,-1,-1,-1,-1,-1,-1,-1,-1,-1,-1,-1,-1,-1,-1,-1,-1,-1,-1,-1,-1,-1,-1,-1,-1,-1,-1,-1,-1],"loss_changes":[7.368681E2,8.4174805E1,5.749179E1,6.1707546E1,7.2229034E1,6.868744E0,5.057556E1,2.0592846E1,1.9573425E1,7.7732544E0,4.1258415E1,1.4254761E0,1.3244644E1,6.5427303E0,8.276321E0,6.688997E0,1.1883385E1,5.7714405E0,8.934442E0,6.103779E0,4.4097595E0,3.6743069E0,2.3964333E1,3.0761719E-2,2.6308582E0,0E0,1.5900692E1,7.348012E0,4.8235054E0,6.324524E0,1.9454165E1,0E0,0E0,0E0,0E0,0E0,0E0,0E0,0E0,0E0,0E0,0E0,0E0,0E0,0E0,0E0,0E0,0E0,0E0,0E0,0E0,0E0,0E0,0E0,0E0,0E0,0E0,0E0,0E0,0E0,0E0],"parents":[2147483647,0,0,1,1,2,2,3,3,4,4,5,5,6,6,7,7,8,8,9,9,10,10,11,11,12,12,13,13,14,14,15,15,16,16,17,17,18,18,19,19,20,20,21,21,22,22,23,23,24,24,26,26,27,27,28,28,29,29,30,30],"right_children":[2,4,6,8,10,12,14,16,18,20,22,24,26,28,30,32,34,36,38,40,42,44,46,48,50,-1,52,54,56,58,60,-1,-1,-1,-1,-1,-1,-1,-1,-1,-1,-1,-1,-1,-1,-1,-1,-1,-1,-1,-1,-1,-1,-1,-1,-1,-1,-1,-1,-1,-1],"split_conditions":[3.708072E-1,1.03533916E-1,1.1318187E0,-1.1188008E0,-8.745664E-1,1.7321932E-1,1.5693889E0,-1.5008898E0,5.5253208E-2,8.3149505E-1,1.7417893E-1,1.0721709E0,1.7819686E-1,5.6312585E-1,1.4482039E0,-9.949028E-1,8.3149505E-1,2.8054994E-3,-5.489205E-1,-9.354023E-1,5.5253208E-2,5.1892775E-1,4.6872285E-1,1.0793089E0,3.7166853E-2,7.671777E-2,4.0093315E-1,-5.006007E-1,6.062644E-1,-5.1533896E-1,1.6084834E0,-4.186224E-3,-7.315821E-2,1.880055E-2,4.6153955E-2,-1.6430065E-2,-4.0206317E-2,1.8887058E-2,-1.0959545E-2,5.40541E-2,2.1387583E-2,5.14335E-2,6.723384E-2,-7.0850275E-2,-8.9703575E-3,3.1488515E-2,1.3311831E-3,-6.4927615E-2,-7.549183E-2,2.616598E-2,-5.001523E-2,-7.0277415E-2,-1.2542139E-2,1.8799292E-2,-3.3832557E-2,5.525567E-2,-4.387659E-3,6.2490716E-3,-6.400141E-2,-4.634809E-3,-7.526596E-2],"split_indices":[14,17,13,4,4,17,14,17,6,15,7,18,17,17,20,18,15,13,4,18,6,20,4,4,17,0,16,18,17,17,4,0,0,0,0,0,0,0,0,0,0,0,0,0,0,0,0,0,0,0,0,0,0,0,0,0,0,0,0,0,0],"split_type":[0,0,0,0,0,0,0,0,0,0,0,0,0,0,0,0,0,0,0,0,0,0,0,0,0,0,0,0,0,0,0,0,0,0,0,0,0,0,0,0,0,0,0,0,0,0,0,0,0,0,0,0,0,0,0,0,0,0,0,0,0],"sum_hessian":[1.5964663E3,1.0576746E3,5.387917E2,3.8313232E2,6.745423E2,2.671934E2,2.715983E2,1.7805954E2,2.0507278E2,2.9666705E2,3.778752E2,2.1348781E2,5.370558E1,1.4177673E2,1.2982158E2,1.546091E1,1.6259862E2,1.0663795E2,9.8434845E1,6.071337E1,2.3595369E2,1.4841549E1,3.6303366E2,2.1057283E2,2.9149776E0,1.2849255E0,5.242066E1,4.546655E1,9.631018E1,8.980467E1,4.0016907E1,1.1260416E1,4.2004943E0,8.013574E1,8.246288E1,5.9349606E1,4.728834E1,4.7768612E1,5.0666233E1,2.7534636E1,3.3178738E1,1.3878258E2,9.717113E1,1.1477585E1,3.363964E0,2.765378E2,8.649585E1,1.5379785E2,5.6774986E1,1.0869778E0,1.8279997E0,3.33831E1,1.9037558E1,7.3097687E0,3.815678E1,2.5171084E0,9.379307E1,3.1493096E0,8.6655365E1,2.479955E1,1.521736E1],"tree_param":{"num_deleted":"0","num_feature":"23","num_nodes":"61","size_leaf_vector":"1"}},{"base_weights":[-2.8164038E-2,4.2270398E-1,-9.28792E-1,6.1843157E-1,-1.3389477E-1,-1.1005707E0,-3.3931378E-1,8.9183784E-1,3.275763E-1,-3.3699545E-1,2.859392E-1,-7.4473155E-1,-1.2171556E0,-9.168139E-2,-9.895394E-1,5.524358E-1,1.0606016E0,-4.4842426E-2,6.265782E-1,4.2349976E-1,-5.7385886E-1,5.125059E-1,-6.203876E-1,-1.9087777E-1,-8.6966896E-1,-6.7613676E-2,-1.0931437E0,1.6746025E-1,-8.5712934E-1,-6.4054143E-1,-1.3045882E0,4.2013716E-2,-1.9408371E-3,3.5014905E-2,5.760066E-2,-2.2794848E-2,5.709967E-3,4.8784293E-2,1.6469738E-2,1.0760023E-2,3.955278E-2,-2.2291817E-2,-6.83338E-2,4.8742533E-2,1.408353E-2,-1.7058363E-2,-7.7141605E-2,-2.207341E-2,5.2776005E-2,-5.5519518E-2,-2.5544003E-2,4.2035267E-2,-5.6086402E-2,-2.934219E-2,1.6419906E-2,3.7295334E-2,-5.6251157E-2,-6.0585625E-2,2.949564E-3,7.97987E-3,-7.259263E-2],"categories":[],"categories_nodes":[],"categories_segments":[],"categories_sizes":[],"default_left":[0,0,0,0,0,0,0,0,0,0,0,0,1,0,0,0,0,0,0,0,0,0,0,0,0,0,0,0,0,0,0,0,0,0,0,0,0,0,0,0,0,0,0,0,0,0,0,0,0,0,0,0,0,0,0,0,0,0,0,0,0],"id":9,"left_children":[1,3,5,7,9,11,13,15,17,19,21,23,25,27,29,31,33,35,37,39,41,43,45,47,49,-1,51,53,55,57,59,-1,-1,-1,-1,-1,-1,-1,-1,-1,-1,-1,-1,-1,-1,-1,-1,-1,-1,-1,-1,-1,-1,-1,-1,-1,-1,-1,-1,-1,-1],"loss_changes":[6.392592E2,1.143772E2,5.2806183E1,6.144571E1,2.3440144E1,1.5946106E1,1.9223812E1,2.230304E1,4.209306E1,3.356195E1,1.875776E1,6.9492035E0,3.6224365E0,1.7593601E1,2.7907104E0,2.297321E1,7.9478455E0,1.1110848E1,2.1424347E1,3.237029E0,1.3749104E1,7.451103E0,4.2157745E0,6.7773666E0,6.6546783E0,0E0,1.0005463E1,8.272653E0,1.0464504E1,7.1085067E0,3.761282E0,0E0,0E0,0E0,0E0,0E0,0E0,0E0,0E0,0E0,0E0,0E0,0E0,0E0,0E0,0E0,0E0,0E0,0E0,0E0,0E0,0E0,0E0,0E0,0E0,0E0,0E0,0E0,0E0,0E0,0E0],"parents":[2147483647,0,0,1,1,2,2,3,3,4,4,5,5,6,6,7,7,8,8,9,9,10,10,11,11,12,12,13,13,14,14,15,15,16,16,17,17,18,18,19,19,20,20,21,21,22,22,23,23,24,24,26,26,27,27,28,28,29,29,30,30],"right_children":[2,4,6,8,10,12,14,16,18,20,22,24,26,28,30,32,34,36,38,40,42,44,46,48,50,-1,52,54,56,58,60,-1,-1,-1,-1,-1,-1,-1,-1,-1,-1,-1,-1,-1,-1,-1,-1,-1,-1,-1,-1,-1,-1,-1,-1,-1,-1,-1,-1,-1,-1],"split_conditions":[3.708072E-1,2.30748E-1,1.1604294E0,-8.745664E-1,4.735303E-1,2.30748E-1,1.5677776E0,1.03533916E-1,6.4944345E-1,-1.5733931E0,5.0942856E-1,3.318852E-1,-1.0963963E0,1.5347862E0,1.4806504E0,-1.1595066E0,8.3149505E-1,8.3149505E-1,-6.04517E-2,8.3149505E-1,-4.7653282E-1,6.566464E-1,1.5347862E0,1.527072E0,8.0971533E-1,-6.7613676E-2,-1.3117437E0,1.2732534E0,1.1902945E0,1.4800873E0,1.5693889E0,4.2013716E-2,-1.9408371E-3,3.5014905E-2,5.760066E-2,-2.2794848E-2,5.709967E-3,4.8784293E-2,1.6469738E-2,1.0760023E-2,3.955278E-2,-2.2291817E-2,-6.83338E-2,4.8742533E-2,1.408353E-2,-1.7058363E-2,-7.7141605E-2,-2.207341E-2,5.2776005E-2,-5.5519518E-2,-2.5544003E-2,4.2035267E-2,-5.6086402E-2,-2.934219E-2,1.6419906E-2,3.7295334E-2,-5.6251157E-2,-6.0585625E-2,2.949564E-3,7.97987E-3,-7.259263E-2],"split_indices":[14,11,17,4,17,11,4,17,20,20,4,5,20,3,17,4,15,15,4,15,18,20,3,4,20,0,17,17,17,20,14,0,0,0,0,0,0,0,0,0,0,0,0,0,0,0,0,0,0,0,0,0,0,0,0,0,0,0,0,0,0],"split_type":[0,0,0,0,0,0,0,0,0,0,0,0,0,0,0,0,0,0,0,0,0,0,0,0,0,0,0,0,0,0,0,0,0,0,0,0,0,0,0,0,0,0,0,0,0,0,0,0,0,0,0,0,0,0,0,0,0,0,0,0,0],"sum_hessian":[1.5723137E3,1.048133E3,5.241806E2,7.7536523E2,2.7276782E2,4.052272E2,1.1895343E2,3.9860608E2,3.7675916E2,1.8396799E2,8.879983E1,1.0182528E2,3.0340192E2,8.697196E1,3.1981464E1,1.3379779E2,2.648083E2,1.6815964E2,2.085995E2,4.350355E1,1.4046443E2,7.138843E1,1.7411402E1,1.9207087E1,8.2618195E1,1.4045932E2,1.629426E2,6.555845E1,2.141352E1,1.6612253E1,1.5369213E1,8.970545E1,4.409234E1,5.534071E1,2.0946759E2,4.6391373E1,1.21768265E2,9.4870285E1,1.1372922E2,2.8779358E1,1.4724195E1,1.22281075E2,1.8183357E1,2.269966E1,4.868877E1,1.4417217E1,2.9941843E0,1.6529589E1,2.6774979E0,4.819081E1,3.4427383E1,1.9595547E0,1.6098303E2,1.10625725E1,5.4495872E1,2.8106544E0,1.8602865E1,8.742111E0,7.870141E0,1.3968813E0,1.3972331E1],"tree_param":{"num_deleted":"0","num_feature":"23","num_nodes":"61","size_leaf_vector":"1"}},{"base_weights":[1.4016791E-2,4.5171225E-1,-8.6964065E-1,6.380197E-1,-4.0373825E-2,-3.7027296E-1,-1.1010866E0,8.183548E-1,3.227702E-1,-1.8591891E-1,5.615407E-1,-6.367786E-1,-1.0122473E-2,-1.2394664E0,-5.7881886E-1,4.7408378E-1,9.955284E-1,-3.2516244E-1,4.7873735E-1,4.423991E-1,-3.7399462E-1,1.2830559E0,-1.9724685E-1,4.273333E-1,-7.669959E-1,-1.1321549E-1,8.449781E-1,-1.0831952E0,-6.698522E-2,-2.5241086E-1,-7.261888E-2,3.263925E-2,-2.1525703E-3,4.2379443E-2,5.8674593E-2,-2.981094E-2,2.2091879E-2,8.386323E-3,3.232197E-2,-2.4897078E-2,2.8318314E-2,-3.6517378E-2,-1.03350775E-2,1.6683904E-2,6.6666044E-2,-1.7146168E-2,5.0074674E-2,4.7405217E-2,-1.6564619E-2,-5.885567E-2,-1.8599192E-2,7.588332E-3,-1.717814E-2,7.209329E-2,-2.3677314E-3,-6.0357448E-2,-2.0034024E-2,4.975433E-2,-1.9339144E-2],"categories":[],"categories_nodes":[],"categories_segments":[],"categories_sizes":[],"default_left":[0,0,0,0,0,0,0,0,0,0,0,0,1,0,0,0,0,0,0,0,0,0,0,0,0,0,0,0,0,0,0,0,0,0,0,0,0,0,0,0,0,0,0,0,0,0,0,0,0,0,0,0,0,0,0,0,0,0,0],"id":10,"left_children":[1,3,5,7,9,11,13,15,17,19,21,23,25,27,29,31,33,35,37,39,41,43,45,47,49,51,53,55,-1,57,-1,-1,-1,-1,-1,-1,-1,-1,-1,-1,-1,-1,-1,-1,-1,-1,-1,-1,-1,-1,-1,-1,-1,-1,-1,-1,-1,-1,-1],"loss_changes":[6.0226953E2,9.549478E1,5.9208282E1,4.268155E1,2.5240507E1,1.5817448E1,2.4718506E1,2.8798676E1,2.8101135E1,2.755815E1,3.0976551E1,1.3454578E1,6.3660684E0,2.8934326E0,2.1188581E1,1.5272514E1,7.3228455E0,1.1541344E1,1.1537605E1,6.5605335E0,1.0516907E1,9.3416595E-1,5.2713428E0,4.6483984E0,1.3293781E1,3.9804413E0,4.207308E0,9.127472E0,0E0,9.812851E0,0E0,0E0,0E0,0E0,0E0,0E0,0E0,0E0,0E0,0E0,0E0,0E0,0E0,0E0,0E0,0E0,0E0,0E0,0E0,0E0,0E0,0E0,0E0,0E0,0E0,0E0,0E0,0E0,0E0],"parents":[2147483647,0,0,1,1,2,2,3,3,4,4,5,5,6,6,7,7,8,8,9,9,10,10,11,11,12,12,13,13,14,14,15,15,16,16,17,17,18,18,19,19,20,20,21,21,22,22,23,23,24,24,25,25,26,26,27,27,29,29],"right_children":[2,4,6,8,10,12,14,16,18,20,22,24,26,28,30,32,34,36,38,40,42,44,46,48,50,52,54,56,-1,58,-1,-1,-1,-1,-1,-1,-1,-1,-1,-1,-1,-1,-1,-1,-1,-1,-1,-1,-1,-1,-1,-1,-1,-1,-1,-1,-1,-1,-1],"split_conditions":[3.708072E-1,2.4205412E-1,2.4205412E-1,-6.30332E-1,8.833469E-1,4.0093315E-1,9.59669E-1,1.7417893E-1,1.7417893E-1,-1.240918E0,2.1029045E-1,-3.4539184E-1,1.5648245E0,1.5693889E0,1.5677776E0,-8.583499E-1,5.5253208E-2,2.2636063E0,4.0093315E-1,4.0093315E-1,-1.2673402E0,-1.2002122E0,1.6034296E0,-1.8369569E-1,9.447364E-1,9.338647E-2,1.6009649E0,1.2204918E0,-6.698522E-2,1.1154656E0,-7.261888E-2,3.263925E-2,-2.1525703E-3,4.2379443E-2,5.8674593E-2,-2.981094E-2,2.2091879E-2,8.386323E-3,3.232197E-2,-2.4897078E-2,2.8318314E-2,-3.6517378E-2,-1.03350775E-2,1.6683904E-2,6.6666044E-2,-1.7146168E-2,5.0074674E-2,4.7405217E-2,-1.6564619E-2,-5.885567E-2,-1.8599192E-2,7.588332E-3,-1.717814E-2,7.209329E-2,-2.3677314E-3,-6.0357448E-2,-2.0034024E-2,4.975433E-2,-1.9339144E-2],"split_indices":[14,8,8,4,17,16,17,7,7,4,18,4,20,14,4,18,6,1,16,16,20,4,17,20,17,9,20,21,0,20,0,0,0,0,0,0,0,0,0,0,0,0,0,0,0,0,0,0,0,0,0,0,0,0,0,0,0,0,0],"split_type":[0,0,0,0,0,0,0,0,0,0,0,0,0,0,0,0,0,0,0,0,0,0,0,0,0,0,0,0,0,0,0,0,0,0,0,0,0,0,0,0,0,0,0,0,0,0,0,0,0,0,0,0,0,0,0,0,0,0,0],"sum_hessian":[1.5551503E3,1.0403368E3,5.148135E2,7.544137E2,2.8592316E2,1.6386288E2,3.509506E2,4.7887973E2,2.7553394E2,2.3080484E2,5.5118313E1,9.37335E1,7.012939E1,2.763546E2,7.459598E1,1.6396013E2,3.1491962E2,5.3246742E1,2.2228719E2,5.2859863E1,1.7794498E2,2.7898903E1,2.721941E1,9.970956E0,8.376254E1,6.335835E1,6.771037E0,1.1260671E2,1.637479E2,5.5243145E1,1.935283E1,1.2165776E2,4.230237E1,1.751126E2,1.3980702E2,3.950752E1,1.3739224E1,7.857203E1,1.4371516E2,5.8055687E0,4.7054295E1,5.5774155E1,1.2217082E2,1.7869202E0,2.6111984E1,2.4906576E1,2.312833E0,5.7642355E0,4.20672E0,4.012412E1,4.363842E1,2.962272E1,3.3735626E1,3.6881611E0,3.082876E0,9.464858E1,1.7958122E1,4.7489424E0,5.04942E1],"tree_param":{"num_deleted":"0","num_feature":"23","num_nodes":"59","size_leaf_vector":"1"}},{"base_weights":[-1.890126E-2,3.9754483E-1,-8.5541695E-1,5.86031E-1,-1.1817029E-1,-5.229193E-1,-1.2059947E0,8.6878043E-1,2.715686E-1,-4.556208E-1,8.614468E-2,-9.8952144E-1,-8.907832E-2,-1.3205827E0,-5.8364177E-1,7.01968E-1,1.1206518E0,9.319005E-2,7.663604E-1,2.661778E-1,-8.151383E-1,3.4736186E-1,-4.4443524E-1,-5.8372045E-1,-1.1379545E0,-3.8203984E-2,-1.0656661E0,-6.651339E-2,-4.8174512E-1,4.138839E-1,-1.0596905E0,4.843565E-2,1.965476E-2,6.5645754E-2,5.0057936E-2,-1.2864935E-2,1.4562949E-2,4.0557295E-2,-1.9381297E-3,-2.141996E-2,2.3038035E-2,-2.3983784E-2,-6.130624E-2,6.0436404E-3,5.66431E-2,6.487146E-3,-3.558531E-2,3.135706E-2,-3.64305E-2,-4.4251136E-2,-6.383588E-2,-3.9857E-3,4.506902E-2,-7.008817E-2,1.4319308E-2,2.3048555E-2,-5.0675895E-2,4.0857837E-2,-3.0934453E-2,-1.6177528E-2,-7.224373E-2],"categories":[],"categories_nodes":[],"categories_segments":[],"categories_sizes":[],"default_left":[0,0,0,0,0,0,1,0,0,0,0,0,0,1,0,0,0,0,0,0,0,0,0,0,0,0,0,0,0,0,0,0,0,0,0,0,0,0,0,0,0,0,0,0,0,0,0,0,0,0,0,0,0,0,0,0,0,0,0,0,0],"id":11,"left_children":[1,3,5,7,9,11,13,15,17,19,21,23,25,27,29,31,33,35,37,39,41,43,45,47,49,51,53,-1,55,57,59,-1,-1,-1,-1,-1,-1,-1,-1,-1,-1,-1,-1,-1,-1,-1,-1,-1,-1,-1,-1,-1,-1,-1,-1,-1,-1,-1,-1,-1,-1],"loss_changes":[5.338707E2,9.952777E1,5.8742645E1,6.640384E1,1.897852E1,5.31882E1,1.6855957E1,1.5775238E1,3.1375505E1,2.7141245E1,2.398491E1,6.96772E0,6.7896395E0,1.048523E0,1.9540134E1,1.9377335E1,2.255188E0,1.833427E1,3.4307785E0,4.9615746E0,8.994469E0,2.0460934E1,8.864635E0,6.770509E0,2.0891495E0,5.208748E0,3.4778652E0,0E0,2.44298E0,6.216199E0,7.333153E0,0E0,0E0,0E0,0E0,0E0,0E0,0E0,0E0,0E0,0E0,0E0,0E0,0E0,0E0,0E0,0E0,0E0,0E0,0E0,0E0,0E0,0E0,0E0,0E0,0E0,0E0,0E0,0E0,0E0,0E0],"parents":[2147483647,0,0,1,1,2,2,3,3,4,4,5,5,6,6,7,7,8,8,9,9,10,10,11,11,12,12,13,13,14,14,15,15,16,16,17,17,18,18,19,19,20,20,21,21,22,22,23,23,24,24,25,25,26,26,28,28,29,29,30,30],"right_children":[2,4,6,8,10,12,14,16,18,20,22,24,26,28,30,32,34,36,38,40,42,44,46,48,50,52,54,-1,56,58,60,-1,-1,-1,-1,-1,-1,-1,-1,-1,-1,-1,-1,-1,-1,-1,-1,-1,-1,-1,-1,-1,-1,-1,-1,-1,-1,-1,-1,-1,-1],"split_conditions":[3.708072E-1,2.4205412E-1,1.5693889E0,-8.745664E-1,-1.1707137E0,1.1318187E0,1.4482039E0,3.5738793E-1,1.0276953E0,-9.996637E-1,-1.01157434E-1,2.4205412E-1,1.5677776E0,2.202001E0,1.4690362E0,-9.6377033E-1,-9.09645E-1,4.0093315E-1,1.3976916E0,1.3362778E0,-1.4842981E0,8.5845923E-1,8.3149505E-1,-9.915226E-1,-2.639804E-1,2.242085E0,2.4956205E0,-6.651339E-2,1.288186E0,1.6084834E0,1.4863663E0,4.843565E-2,1.965476E-2,6.5645754E-2,5.0057936E-2,-1.2864935E-2,1.4562949E-2,4.0557295E-2,-1.9381297E-3,-2.141996E-2,2.3038035E-2,-2.3983784E-2,-6.130624E-2,6.0436404E-3,5.66431E-2,6.487146E-3,-3.558531E-2,3.135706E-2,-3.64305E-2,-4.4251136E-2,-6.383588E-2,-3.9857E-3,4.506902E-2,-7.008817E-2,1.4319308E-2,2.3048555E-2,-5.0675895E-2,4.0857837E-2,-3.0934453E-2,-1.6177528E-2,-7.224373E-2],"split_indices":[14,8,14,4,17,13,20,17,17,18,4,8,4,18,17,18,18,16,17,16,17,17,15,17,4,18,18,0,17,4,4,0,0,0,0,0,0,0,0,0,0,0,0,0,0,0,0,0,0,0,0,0,0,0,0,0,0,0,0,0,0],"split_type":[0,0,0,0,0,0,0,0,0,0,0,0,0,0,0,0,0,0,0,0,0,0,0,0,0,0,0,0,0,0,0,0,0,0,0,0,0,0,0,0,0,0,0,0,0,0,0,0,0,0,0,0,0,0,0,0,0,0,0,0,0],"sum_hessian":[1.5305336E3,1.02218146E3,5.083521E2,7.4848505E2,2.736964E2,2.6218256E2,2.4616954E2,3.9318726E2,3.5529776E2,1.0275474E2,1.7094168E2,1.2570463E2,1.3647794E2,2.0694481E2,3.9224724E1,2.388114E2,1.5437585E2,2.6202344E2,9.327434E1,3.425036E1,6.850438E1,1.14778694E2,5.616298E1,3.49868E1,9.071783E1,1.3070796E2,5.769977E0,2.0400359E2,2.9412234E0,1.2714013E1,2.651071E1,1.26998344E2,1.1181306E2,5.534271E1,9.903314E1,9.4501396E1,1.6752203E2,8.83522E1,4.922136E0,7.2323537E0,2.7018005E1,3.891094E1,2.959344E1,8.998619E1,2.4792503E1,1.8002588E1,3.8160393E1,3.3833416E0,3.1603458E1,3.4751736E1,5.5966095E1,1.2605416E2,4.6538024E0,4.591773E0,1.1782039E0,1.1087666E0,1.832457E0,9.293172E0,3.4208407E0,9.7387E0,1.677201E1],"tree_param":{"num_deleted":"0","num_feature":"23","num_nodes":"61","size_leaf_vector":"1"}},{"base_weights":[3.2182054E-3,3.94856E-1,-7.8818303E-1,5.8458453E-1,-1.15013205E-1,-4.8770502E-1,-1.1212933E0,7.7426094E-1,3.4610623E-1,-2.366624E-1,3.779032E-1,-9.625494E-1,-6.799493E-2,-1.187228E0,-7.052211E-1,5.20037E-1,1.080106E0,4.712252E-2,5.5167675E-1,3.147977E-1,-3.7481305E-1,1.0931616E0,-3.9538968E-1,-1.0561621E0,-3.7682274E-1,-2.662748E-1,1.9002639E-1,-1.2048271E0,-4.2236727E-1,4.406143E-1,-1.1722851E0,4.5280486E-2,8.956472E-3,5.9622742E-2,4.2220604E-2,5.068747E-3,-6.873676E-2,4.9363333E-3,3.1385913E-2,-3.0439883E-2,2.1694569E-2,-4.519431E-3,-3.3955872E-2,2.7974872E-3,5.8349956E-2,-5.8053996E-2,-2.8459565E-3,-6.266111E-2,-4.6647623E-2,-7.027572E-2,2.7809355E-2,-1.5266659E-2,5.8212545E-2,2.0566365E-2,-2.4691997E-2,-5.766328E-2,-6.825979E-2,2.3182353E-2,-5.6439944E-2,7.1044914E-2,-5.208108E-3,-1.7018972E-2,-6.1728712E-2],"categories":[],"categories_nodes":[],"categories_segments":[],"categories_sizes":[],"default_left":[0,0,0,0,0,0,1,0,0,0,0,0,0,1,0,0,0,0,0,0,0,0,0,0,0,0,0,0,0,0,0,0,0,0,0,0,0,0,0,0,0,0,0,0,0,0,0,0,0,0,0,0,0,0,0,0,0,0,0,0,0,0,0],"id":12,"left_children":[1,3,5,7,9,11,13,15,17,19,21,23,25,27,29,31,33,35,37,39,41,43,45,47,49,51,53,55,57,59,61,-1,-1,-1,-1,-1,-1,-1,-1,-1,-1,-1,-1,-1,-1,-1,-1,-1,-1,-1,-1,-1,-1,-1,-1,-1,-1,-1,-1,-1,-1,-1,-1],"loss_changes":[4.7530396E2,9.930495E1,5.026642E1,3.3558243E1,1.6821695E1,5.3480717E1,5.746521E0,3.176146E1,2.0446766E1,1.7215614E1,3.1195835E1,6.509796E0,7.402012E0,2.2599792E0,1.9403872E1,2.9931255E1,3.9652557E0,1.0692493E1,6.733242E0,5.2691813E0,1.5511074E1,2.1679153E0,7.050573E0,1.4546356E0,1.8935925E1,4.9186926E0,9.741144E0,8.3740234E-2,4.3829303E0,5.9938745E0,8.931236E-1,0E0,0E0,0E0,0E0,0E0,0E0,0E0,0E0,0E0,0E0,0E0,0E0,0E0,0E0,0E0,0E0,0E0,0E0,0E0,0E0,0E0,0E0,0E0,0E0,0E0,0E0,0E0,0E0,0E0,0E0,0E0,0E0],"parents":[2147483647,0,0,1,1,2,2,3,3,4,4,5,5,6,6,7,7,8,8,9,9,10,10,11,11,12,12,13,13,14,14,15,15,16,16,17,17,18,18,19,19,20,20,21,21,22,22,23,23,24,24,25,25,26,26,27,27,28,28,29,29,30,30],"right_children":[2,4,6,8,10,12,14,16,18,20,22,24,26,28,30,32,34,36,38,40,42,44,46,48,50,52,54,56,58,60,62,-1,-1,-1,-1,-1,-1,-1,-1,-1,-1,-1,-1,-1,-1,-1,-1,-1,-1,-1,-1,-1,-1,-1,-1,-1,-1,-1,-1,-1,-1,-1,-1],"split_conditions":[3.708072E-1,2.4205412E-1,1.5693889E0,-5.0912076E-1,8.833469E-1,1.1318187E0,1.4603069E0,3.5738793E-1,6.062644E-1,-9.949028E-1,2.5331426E-1,7.4523765E-1,1.2784716E0,2.1589334E0,1.4690362E0,-9.7362125E-1,-7.501432E-1,7.89595E-1,8.3149505E-1,4.0093315E-1,2.8054994E-3,-8.4731424E-1,1.2361819E0,-1.4677063E0,4.0093315E-1,1.3064369E0,1.5347862E0,1.4198278E0,1.298141E0,9.338647E-2,1.6915513E0,4.5280486E-2,8.956472E-3,5.9622742E-2,4.2220604E-2,5.068747E-3,-6.873676E-2,4.9363333E-3,3.1385913E-2,-3.0439883E-2,2.1694569E-2,-4.519431E-3,-3.3955872E-2,2.7974872E-3,5.8349956E-2,-5.8053996E-2,-2.8459565E-3,-6.266111E-2,-4.6647623E-2,-7.027572E-2,2.7809355E-2,-1.5266659E-2,5.8212545E-2,2.0566365E-2,-2.4691997E-2,-5.766328E-2,-6.825979E-2,2.3182353E-2,-5.6439944E-2,7.1044914E-2,-5.208108E-3,-1.7018972E-2,-6.1728712E-2],"split_indices":[14,8,14,19,17,13,20,17,17,18,18,20,20,18,17,18,18,21,15,16,13,18,20,17,16,17,3,18,17,9,18,0,0,0,0,0,0,0,0,0,0,0,0,0,0,0,0,0,0,0,0,0,0,0,0,0,0,0,0,0,0,0,0],"split_type":[0,0,0,0,0,0,0,0,0,0,0,0,0,0,0,0,0,0,0,0,0,0,0,0,0,0,0,0,0,0,0,0,0,0,0,0,0,0,0,0,0,0,0,0,0,0,0,0,0,0,0,0,0,0,0,0,0,0,0,0,0,0,0],"sum_hessian":[1.531518E3,1.0248535E3,5.0666443E2,7.4681E2,2.7804358E2,2.676753E2,2.3898914E2,4.1471503E2,3.3209497E2,2.2342366E2,5.461992E1,1.2498197E2,1.4269331E2,2.0469745E2,3.4291676E1,2.2794409E2,1.8677094E2,1.3580627E2,1.962887E2,4.450261E1,1.7892105E2,2.8159813E1,2.6460108E1,1.07067E2,1.7914968E1,8.066966E1,6.2023655E1,1.9953111E2,5.1663423E0,9.946595E0,2.4345081E1,1.0618755E2,1.2175654E2,1.23731964E2,6.303896E1,1.3170947E2,4.0968056E0,2.8546501E1,1.6774219E2,4.6133347E0,3.9889275E1,9.315181E1,8.576924E1,1.9882433E0,2.617157E1,7.3661E0,1.9094007E1,3.7660995E1,6.9406006E1,8.279719E0,9.635249E0,7.929129E1,1.3783704E0,4.716082E1,1.4862837E1,1.5718465E2,4.234646E1,2.4443228E0,2.7220192E0,2.9786031E0,6.9679923E0,2.146178E0,2.2198904E1],"tree_param":{"num_deleted":"0","num_feature":"23","num_nodes":"63","size_leaf_vector":"1"}},{"base_weights":[-8.994861E-3,3.8242358E-1,-6.047079E-1,6.6583693E-1,-3.3021588E-2,-2.7492815E-1,-8.9597887E-1,2.9374543E-1,8.6266714E-1,-3.604475E-1,2.3980807E-1,-4.0543082E-1,9.0229607E-1,-1.0763106E0,-5.173006E-1,5.318324E-1,-1.5446867E-1,1.0075908E0,6.78611E-1,-1.1282521E-1,-7.743059E-1,-7.951466E-1,3.45154E-1,1.2651987E-1,-5.999182E-1,1.00014E0,-2.2575207E-2,-1.1540327E0,-4.2922586E-1,5.504108E-2,-7.6521975E-1,3.1547163E-2,-1.2078998E-3,7.2762775E-3,-5.5966597E-2,5.826926E-2,4.485189E-2,1.3166306E-2,4.040563E-2,-3.3315383E-2,2.8372253E-3,-5.045336E-2,-1.1829864E-2,-6.4559706E-2,7.842431E-4,2.7975777E-2,2.1657567E-3,-8.4206864E-4,6.783684E-2,-1.6849956E-2,-4.7158923E-2,6.0407627E-2,2.4292326E-2,-1.5027572E-2,-5.858879E-2,2.0254737E-2,-5.0553676E-2,4.0169206E-2,-1.224018E-2,3.2417E-2,-4.173097E-2],"categories":[],"categories_nodes":[],"categories_segments":[],"categories_sizes":[],"default_left":[0,0,0,0,0,0,0,0,0,0,0,0,0,0,0,0,0,0,0,0,0,0,0,0,0,0,0,0,0,0,0,0,0,0,0,0,0,0,0,0,0,0,0,0,0,0,0,0,0,0,0,0,0,0,0,0,0,0,0,0,0],"id":13,"left_children":[1,3,5,7,9,11,13,15,17,19,21,23,25,27,29,31,33,35,37,39,41,43,45,47,49,51,-1,53,55,57,59,-1,-1,-1,-1,-1,-1,-1,-1,-1,-1,-1,-1,-1,-1,-1,-1,-1,-1,-1,-1,-1,-1,-1,-1,-1,-1,-1,-1,-1,-1],"loss_changes":[3.5486554E2,1.0816243E2,5.771907E1,3.9737183E1,3.344439E1,4.406814E1,2.1294983E1,2.0403322E1,8.828308E0,1.7347265E1,2.2547977E1,2.664027E1,4.252882E0,1.0359955E1,1.496277E1,6.880741E0,1.9508924E1,2.3990173E0,8.4003525E0,1.0137496E1,7.779011E0,7.7330513E0,1.2017921E1,1.2292413E1,1.6666817E1,2.3094234E0,0E0,2.5569763E0,1.2418236E1,7.537446E0,7.7454605E0,0E0,0E0,0E0,0E0,0E0,0E0,0E0,0E0,0E0,0E0,0E0,0E0,0E0,0E0,0E0,0E0,0E0,0E0,0E0,0E0,0E0,0E0,0E0,0E0,0E0,0E0,0E0,0E0,0E0,0E0],"parents":[2147483647,0,0,1,1,2,2,3,3,4,4,5,5,6,6,7,7,8,8,9,9,10,10,11,11,12,12,13,13,14,14,15,15,16,16,17,17,18,18,19,19,20,20,21,21,22,22,23,23,24,24,25,25,27,27,28,28,29,29,30,30],"right_children":[2,4,6,8,10,12,14,16,18,20,22,24,26,28,30,32,34,36,38,40,42,44,46,48,50,52,-1,54,56,58,60,-1,-1,-1,-1,-1,-1,-1,-1,-1,-1,-1,-1,-1,-1,-1,-1,-1,-1,-1,-1,-1,-1,-1,-1,-1,-1,-1,-1,-1,-1],"split_conditions":[2.4205412E-1,-3.8609758E-1,-6.04517E-2,1.7417893E-1,4.0093315E-1,8.833469E-1,9.447364E-1,-8.656778E-1,-9.966836E-1,9.164859E-1,-1.9539711E-1,-1.2002122E0,1.3379613E0,2.2636063E0,9.338647E-2,2.30748E-1,1.3362778E0,-1.240918E0,4.635752E-1,-2.9137833E-2,1.298141E0,9.338647E-2,5.501343E-1,2.2636063E0,1.3362778E0,9.9433625E-1,-2.2575207E-2,-1.9745966E-2,9.164859E-1,4.6872285E-1,9.6630573E-1,3.1547163E-2,-1.2078998E-3,7.2762775E-3,-5.5966597E-2,5.826926E-2,4.485189E-2,1.3166306E-2,4.040563E-2,-3.3315383E-2,2.8372253E-3,-5.045336E-2,-1.1829864E-2,-6.4559706E-2,7.842431E-4,2.7975777E-2,2.1657567E-3,-8.4206864E-4,6.783684E-2,-1.6849956E-2,-4.7158923E-2,6.0407627E-2,2.4292326E-2,-1.5027572E-2,-5.858879E-2,2.0254737E-2,-5.0553676E-2,4.0169206E-2,-1.224018E-2,3.2417E-2,-4.173097E-2],"split_indices":[8,4,4,7,16,17,17,18,4,4,18,4,17,1,9,11,16,4,17,18,17,9,4,1,16,0,0,4,4,4,17,0,0,0,0,0,0,0,0,0,0,0,0,0,0,0,0,0,0,0,0,0,0,0,0,0,0,0,0,0,0],"split_type":[0,0,0,0,0,0,0,0,0,0,0,0,0,0,0,0,0,0,0,0,0,0,0,0,0,0,0,0,0,0,0,0,0,0,0,0,0,0,0,0,0,0,0,0,0,0,0,0,0,0,0,0,0,0,0,0,0,0,0,0,0],"sum_hessian":[1.519906E3,9.1744727E2,6.0245874E2,5.450297E2,3.7241757E2,2.8346307E2,3.1899564E2,1.8942657E2,3.5560315E2,1.6912619E2,2.0329138E2,2.5576549E2,2.76976E1,2.1484244E2,1.0415319E2,1.2359013E2,6.583643E1,1.9644792E2,1.5915521E2,1.0661079E2,6.251541E1,1.817601E1,1.8511537E2,6.8568985E1,1.871965E2,2.6074348E1,1.6232505E0,1.9110515E2,2.3737293E1,3.1714842E1,7.243835E1,1.0477766E2,1.8812475E1,5.0869366E1,1.4967071E1,7.700122E1,1.1944671E2,3.8553978E1,1.2060124E2,2.431529E1,8.2295494E1,4.2906155E1,1.9609255E1,1.0909441E1,7.2665687E0,1.0774368E2,7.737169E1,6.229576E1,6.2732215E0,1.07125694E2,8.007081E1,1.7604738E1,8.46961E0,4.2573385E0,1.8684781E2,9.877527E0,1.3859767E1,8.59196E0,2.3122883E1,2.999582E0,6.943877E1],"tree_param":{"num_deleted":"0","num_feature":"23","num_nodes":"61","size_leaf_vector":"1"}},{"base_weights":[2.3369773E-3,3.7521172E-1,-5.321216E-1,6.2781143E-1,-7.108926E-2,-2.2015944E-2,-8.1903017E-1,3.0808923E-1,7.9778856E-1,-6.329616E-1,1.1405221E-1,-2.122207E-1,7.994972E-1,-1.043916E0,-2.8850693E-1,6.236111E-1,-7.870899E-2,1.1884375E0,6.901113E-1,-9.152968E-2,-1.0191339E0,2.9025048E-1,-4.9200565E-1,4.6924198E-1,-4.2251948E-1,9.7034734E-1,1.20064154E-1,-8.4403914E-1,-1.1776775E0,-1.2233759E-1,-9.571941E-1,5.1323015E-2,2.5773019E-2,2.0478254E-3,-4.5377903E-2,3.2284882E-2,6.0698625E-2,1.9537454E-2,4.5392714E-2,-1.9286292E-2,3.2692652E-2,-6.8509534E-2,-4.0243015E-2,8.87355E-3,3.116681E-2,-6.0559917E-2,-1.7174855E-2,-2.374621E-2,2.9244656E-2,-4.0293008E-2,3.4220912E-3,-1.6844152E-3,5.1078636E-2,-2.080662E-2,5.092106E-2,-5.484375E-2,-8.494366E-3,-3.061691E-2,-6.0844745E-2,4.3233823E-2,-8.599037E-3,-6.3350806E-3,-5.133875E-2],"categories":[],"categories_nodes":[],"categories_segments":[],"categories_sizes":[],"default_left":[0,0,0,0,0,0,0,0,0,0,0,0,0,0,0,0,0,0,0,0,0,0,0,0,1,0,0,0,0,0,0,0,0,0,0,0,0,0,0,0,0,0,0,0,0,0,0,0,0,0,0,0,0,0,0,0,0,0,0,0,0,0,0],"id":14,"left_children":[1,3,5,7,9,11,13,15,17,19,21,23,25,27,29,31,33,35,37,39,41,43,45,47,49,51,53,55,57,59,61,-1,-1,-1,-1,-1,-1,-1,-1,-1,-1,-1,-1,-1,-1,-1,-1,-1,-1,-1,-1,-1,-1,-1,-1,-1,-1,-1,-1,-1,-1,-1,-1],"loss_changes":[3.0154175E2,1.0052394E2,9.098828E1,3.0690552E1,3.367565E1,3.5307133E1,4.717746E1,2.4362537E1,1.4787003E1,1.6678162E1,2.6179108E1,2.647939E1,4.815323E0,6.4680176E0,1.3200383E1,4.256077E0,9.002349E0,3.0804443E-1,1.8760239E1,7.8159823E0,2.411621E0,7.00902E0,5.489195E0,5.051794E0,2.6529078E1,1.7732315E0,5.0856776E0,1.9487984E1,2.9058533E0,4.9086127E0,1.2399559E0,0E0,0E0,0E0,0E0,0E0,0E0,0E0,0E0,0E0,0E0,0E0,0E0,0E0,0E0,0E0,0E0,0E0,0E0,0E0,0E0,0E0,0E0,0E0,0E0,0E0,0E0,0E0,0E0,0E0,0E0,0E0,0E0],"parents":[2147483647,0,0,1,1,2,2,3,3,4,4,5,5,6,6,7,7,8,8,9,9,10,10,11,11,12,12,13,13,14,14,15,15,16,16,17,17,18,18,19,19,20,20,21,21,22,22,23,23,24,24,25,25,26,26,27,27,28,28,29,29,30,30],"right_children":[2,4,6,8,10,12,14,16,18,20,22,24,26,28,30,32,34,36,38,40,42,44,46,48,50,52,54,56,58,60,62,-1,-1,-1,-1,-1,-1,-1,-1,-1,-1,-1,-1,-1,-1,-1,-1,-1,-1,-1,-1,-1,-1,-1,-1,-1,-1,-1,-1,-1,-1,-1,-1],"split_conditions":[2.30748E-1,-2.639804E-1,-5.082148E-1,1.7417893E-1,1.7417893E-1,5.1666886E-1,9.59669E-1,-1.0780951E0,-9.5683736E-1,3.318852E-1,1.1200147E0,-1.5733931E0,-3.422397E-1,4.280171E-1,1.5677776E0,-1.2673402E0,-5.97174E-3,4.0093315E-1,5.5253208E-2,-2.8840148E-1,-9.995232E-2,1.2784716E0,8.9708966E-1,4.0093315E-1,-1.1229887E0,1.7417893E-1,-2.0520417E-1,1.2273076E0,-1.3146949E0,9.8621583E-1,9.338647E-2,5.1323015E-2,2.5773019E-2,2.0478254E-3,-4.5377903E-2,3.2284882E-2,6.0698625E-2,1.9537454E-2,4.5392714E-2,-1.9286292E-2,3.2692652E-2,-6.8509534E-2,-4.0243015E-2,8.87355E-3,3.116681E-2,-6.0559917E-2,-1.7174855E-2,-2.374621E-2,2.9244656E-2,-4.0293008E-2,3.4220912E-3,-1.6844152E-3,5.1078636E-2,-2.080662E-2,5.092106E-2,-5.484375E-2,-8.494366E-3,-3.061691E-2,-6.0844745E-2,4.3233823E-2,-8.599037E-3,-6.3350806E-3,-5.133875E-2],"split_indices":[11,4,4,7,7,17,17,4,18,5,4,20,18,4,4,20,17,16,6,20,20,20,20,16,20,7,18,9,20,17,9,0,0,0,0,0,0,0,0,0,0,0,0,0,0,0,0,0,0,0,0,0,0,0,0,0,0,0,0,0,0,0,0],"split_type":[0,0,0,0,0,0,0,0,0,0,0,0,0,0,0,0,0,0,0,0,0,0,0,0,0,0,0,0,0,0,0,0,0,0,0,0,0,0,0,0,0,0,0,0,0,0,0,0,0,0,0,0,0,0,0,0,0,0,0,0,0,0,0],"sum_hessian":[1.511108E3,8.902835E2,6.208245E2,5.6825366E2,3.2202988E2,2.2387157E2,3.9695297E2,1.9821994E2,3.7003372E2,7.921308E1,2.4281679E2,1.8238554E2,4.148601E1,2.7810016E2,1.1885283E2,1.0883116E2,8.938879E1,7.778733E1,2.922464E2,3.349231E1,4.572077E1,1.8852754E2,5.4289238E1,4.2720524E1,1.3966502E2,3.2807957E1,8.678056E0,1.14425964E2,1.6367418E2,9.614393E1,2.2708899E1,2.1236517E1,8.759464E1,7.894207E1,1.0446715E1,4.676483E0,7.311085E1,1.2423604E2,1.6801035E2,2.4360102E1,9.132209E0,1.5284589E1,3.0436184E1,1.4198549E2,4.6542053E1,8.066977E0,4.622226E1,4.3228254E0,3.8397697E1,7.8068245E1,6.1596775E1,1.6092118E0,3.1198746E1,5.770587E0,2.9074683E0,8.276027E1,3.1665691E1,1.1695207E1,1.5197897E2,3.817901E0,9.2326035E1,1.9736029E0,2.0735296E1],"tree_param":{"num_deleted":"0","num_feature":"23","num_nodes":"63","size_leaf_vector":"1"}},{"base_weights":[2.5927654E-2,3.9166623E-1,-7.335975E-1,5.490002E-1,-3.2079652E-2,-9.4879776E-1,-2.7720535E-1,7.9779685E-1,3.8251522E-1,1.9129265E-2,-1.0732876E0,-5.6869704E-1,-1.0751424E0,6.3278474E-2,-5.3352505E-1,5.49198E-1,9.544188E-1,3.9587067E-3,5.968656E-1,-1.16683014E-1,7.7267647E-1,2.323249E-2,-1.2573826E0,-8.550648E-1,-2.2422272E-1,-9.128437E-1,-1.1840318E0,-7.2291905E-1,1.5774792E-1,-1.7361547E-1,-8.6761546E-1,3.0805191E-2,-6.282169E-3,5.5892017E-2,4.108503E-2,2.479506E-3,-7.72545E-2,3.5147205E-2,2.8180148E-4,1.5858086E-2,-1.2409757E-2,5.92928E-2,8.385292E-3,-3.6648165E-2,-7.8950725E-2,8.686711E-4,-5.8500953E-2,-2.5022224E-2,3.3511695E-2,-5.4375704E-2,-2.4040362E-2,-4.722204E-2,-6.1021656E-2,2.9334987E-2,-6.9255516E-2,1.0861375E-2,-5.582368E-2,-3.263292E-2,6.3288114E-3,2.6231823E-2,-4.562606E-2],"categories":[],"categories_nodes":[],"categories_segments":[],"categories_sizes":[],"default_left":[0,0,0,0,0,0,0,0,0,0,0,0,0,0,0,0,0,0,0,0,0,0,0,0,1,0,0,0,0,0,0,0,0,0,0,0,0,0,0,0,0,0,0,0,0,0,0,0,0,0,0,0,0,0,0,0,0,0,0,0,0],"id":15,"left_children":[1,3,5,7,9,11,13,15,17,19,21,23,25,27,29,31,33,35,37,39,41,-1,43,45,47,49,51,53,55,57,59,-1,-1,-1,-1,-1,-1,-1,-1,-1,-1,-1,-1,-1,-1,-1,-1,-1,-1,-1,-1,-1,-1,-1,-1,-1,-1,-1,-1,-1,-1],"loss_changes":[4.1670523E2,6.751892E1,4.7624664E1,3.0279617E1,1.46877575E1,1.5281036E1,1.3792161E1,1.0965759E1,3.6049263E1,2.7023354E1,4.2401247E0,8.16172E0,3.2886353E0,5.209222E0,1.067676E1,5.3335648E0,2.9786224E0,1.1501453E1,1.7786507E1,1.2850763E1,9.879457E0,0E0,8.3327484E-1,1.2628487E1,1.0167709E1,7.298416E0,1.0852051E-1,7.3498044E0,4.946363E0,6.496062E0,3.3826752E0,0E0,0E0,0E0,0E0,0E0,0E0,0E0,0E0,0E0,0E0,0E0,0E0,0E0,0E0,0E0,0E0,0E0,0E0,0E0,0E0,0E0,0E0,0E0,0E0,0E0,0E0,0E0,0E0,0E0,0E0],"parents":[2147483647,0,0,1,1,2,2,3,3,4,4,5,5,6,6,7,7,8,8,9,9,10,10,11,11,12,12,13,13,14,14,15,15,16,16,17,17,18,18,19,19,20,20,22,22,23,23,24,24,25,25,26,26,27,27,28,28,29,29,30,30],"right_children":[2,4,6,8,10,12,14,16,18,20,22,24,26,28,30,32,34,36,38,40,42,-1,44,46,48,50,52,54,56,58,60,-1,-1,-1,-1,-1,-1,-1,-1,-1,-1,-1,-1,-1,-1,-1,-1,-1,-1,-1,-1,-1,-1,-1,-1,-1,-1,-1,-1,-1,-1],"split_conditions":[3.708072E-1,2.4205412E-1,9.447364E-1,-1.0373893E0,9.5719165E-1,2.4205412E-1,1.1200147E0,1.7417893E-1,4.635752E-1,9.59669E-1,-4.904513E-1,4.0093315E-1,1.5693889E0,6.412677E-3,2.4205412E-1,-2.2996058E-1,-9.5683736E-1,6.0656583E-1,1.5347862E0,-1.240918E0,2.1029045E-1,2.323249E-2,4.0093315E-1,-2.127282E-1,7.023242E-1,1.2273076E0,9.338647E-2,9.338647E-2,1.6034296E0,1.4314431E0,9.6630573E-1,3.0805191E-2,-6.282169E-3,5.5892017E-2,4.108503E-2,2.479506E-3,-7.72545E-2,3.5147205E-2,2.8180148E-4,1.5858086E-2,-1.2409757E-2,5.92928E-2,8.385292E-3,-3.6648165E-2,-7.8950725E-2,8.686711E-4,-5.8500953E-2,-2.5022224E-2,3.3511695E-2,-5.4375704E-2,-2.4040362E-2,-4.722204E-2,-6.1021656E-2,2.9334987E-2,-6.9255516E-2,1.0861375E-2,-5.582368E-2,-3.263292E-2,6.3288114E-3,2.6231823E-2,-4.562606E-2],"split_indices":[14,8,17,4,4,8,4,7,17,17,17,16,14,12,8,17,18,18,3,4,18,0,16,20,20,9,9,9,17,20,17,0,0,0,0,0,0,0,0,0,0,0,0,0,0,0,0,0,0,0,0,0,0,0,0,0,0,0,0,0,0],"split_type":[0,0,0,0,0,0,0,0,0,0,0,0,0,0,0,0,0,0,0,0,0,0,0,0,0,0,0,0,0,0,0,0,0,0,0,0,0,0,0,0,0,0,0,0,0,0,0,0,0,0,0,0,0,0,0,0,0,0,0,0,0],"sum_hessian":[1.4980511E3,1.0114743E3,4.8657678E2,7.3739056E2,2.7408374E2,3.2992844E2,1.5664836E2,2.940972E2,4.4329337E2,2.621712E2,1.1912533E1,8.3680725E1,2.462477E2,6.760199E1,8.904637E1,1.15413345E2,1.7868385E2,1.6062962E2,2.8266376E2,2.2285167E2,3.931954E1,1.1105967E0,1.0801936E1,4.488488E1,3.879585E1,1.0264288E2,1.4360483E2,6.5380826E0,6.1063908E1,4.3598335E1,4.5448036E1,1.05082214E2,1.0331131E1,7.675252E1,1.01931335E2,1.5697353E2,3.6560926E0,2.3950311E2,4.316064E1,5.151091E1,1.7134076E2,2.2792593E1,1.6526945E1,5.3529162E0,5.44902E0,1.2156271E1,3.2728607E1,2.9978527E1,8.81732E0,7.20117E1,3.0631176E1,2.24942E1,1.2111063E2,2.2339637E0,4.3041186E0,5.9133144E1,1.9307638E0,1.6343464E1,2.7254873E1,1.0862725E0,4.4361763E1],"tree_param":{"num_deleted":"0","num_feature":"23","num_nodes":"61","size_leaf_vector":"1"}},{"base_weights":[1.1628072E-2,3.6748812E-1,-7.2353935E-1,5.260167E-1,-7.1798846E-2,-4.652299E-1,-1.018089E0,1.7626925E-1,6.441373E-1,-1.7656127E-1,4.4708297E-1,-8.507535E-1,-1.3204236E-1,-1.1116712E0,-5.442157E-1,7.2051483E-1,-1.333096E-2,7.9849374E-1,4.065207E-1,4.502221E-1,-3.2992768E-1,8.4580505E-1,-1.05357565E-1,-1.1662555E0,-7.0130813E-1,-3.8728583E-1,1.2027656E-1,-1.173319E0,-9.759377E-1,1.564172E-2,-1.1948589E0,-4.3727444E-3,4.1146297E-2,-1.0032477E-2,1.7364042E-2,2.7150959E-2,4.9180817E-2,1.1214097E-2,3.9263453E-2,7.5462535E-3,4.5601863E-2,-4.3144245E-3,-3.0024087E-2,5.0879866E-2,-2.1326398E-3,-7.881589E-2,5.974634E-3,-2.8509885E-2,-6.129567E-2,1.0170974E-2,-3.6938246E-2,-5.099475E-2,-7.966406E-3,3.8756808E-4,4.0975872E-2,-4.4693056E-2,-6.0471185E-2,-2.600137E-2,-5.861633E-2,1.6728384E-2,-3.2506134E-2,-2.9934993E-2,-6.4994454E-2],"categories":[],"categories_nodes":[],"categories_segments":[],"categories_sizes":[],"default_left":[0,0,0,0,0,0,1,0,0,0,0,0,0,1,0,0,0,0,0,0,0,0,0,0,0,0,0,0,0,0,0,0,0,0,0,0,0,0,0,0,0,0,0,0,0,0,0,0,0,0,0,0,0,0,0,0,0,0,0,0,0,0,0],"id":16,"left_children":[1,3,5,7,9,11,13,15,17,19,21,23,25,27,29,31,33,35,37,39,41,43,45,47,49,51,53,55,57,59,61,-1,-1,-1,-1,-1,-1,-1,-1,-1,-1,-1,-1,-1,-1,-1,-1,-1,-1,-1,-1,-1,-1,-1,-1,-1,-1,-1,-1,-1,-1,-1,-1],"loss_changes":[3.862418E2,6.931505E1,3.616513E1,3.0090698E1,1.4466771E1,3.3079556E1,9.33522E0,1.9198532E1,1.9707214E1,2.138647E1,9.945152E0,4.82164E0,9.049565E0,4.13208E-1,1.41978E1,4.0489826E0,9.451969E0,1.5075195E1,1.4809437E1,5.9240675E0,1.1686747E1,4.026905E0,6.6862497E0,6.144333E-1,2.9857483E0,9.893161E0,5.584941E0,1.6116333E-1,5.1303177E0,4.8694887E0,3.4980774E-1,0E0,0E0,0E0,0E0,0E0,0E0,0E0,0E0,0E0,0E0,0E0,0E0,0E0,0E0,0E0,0E0,0E0,0E0,0E0,0E0,0E0,0E0,0E0,0E0,0E0,0E0,0E0,0E0,0E0,0E0,0E0,0E0],"parents":[2147483647,0,0,1,1,2,2,3,3,4,4,5,5,6,6,7,7,8,8,9,9,10,10,11,11,12,12,13,13,14,14,15,15,16,16,17,17,18,18,19,19,20,20,21,21,22,22,23,23,24,24,25,25,26,26,27,27,28,28,29,29,30,30],"right_children":[2,4,6,8,10,12,14,16,18,20,22,24,26,28,30,32,34,36,38,40,42,44,46,48,50,52,54,56,58,60,62,-1,-1,-1,-1,-1,-1,-1,-1,-1,-1,-1,-1,-1,-1,-1,-1,-1,-1,-1,-1,-1,-1,-1,-1,-1,-1,-1,-1,-1,-1,-1,-1],"split_conditions":[3.708072E-1,2.30748E-1,1.5693889E0,8.3149505E-1,1.0276953E0,1.1318187E0,1.4482039E0,-9.672149E-1,-4.6027547E-1,-9.996637E-1,5.1621807E-1,-1.4660472E0,9.9433625E-1,9.4746536E-1,2.3888397E0,-1.1524627E0,2.8054994E-3,1.7819686E-1,1.0177402E0,8.3149505E-1,9.9433625E-1,1.3379613E0,7.5285995E-1,-9.466793E-1,-8.620139E-1,5.08373E-1,1.4441485E0,2.4205412E-1,1.3279661E0,1.495583E0,2.4465852E0,-4.3727444E-3,4.1146297E-2,-1.0032477E-2,1.7364042E-2,2.7150959E-2,4.9180817E-2,1.1214097E-2,3.9263453E-2,7.5462535E-3,4.5601863E-2,-4.3144245E-3,-3.0024087E-2,5.0879866E-2,-2.1326398E-3,-7.881589E-2,5.974634E-3,-2.8509885E-2,-6.129567E-2,1.0170974E-2,-3.6938246E-2,-5.099475E-2,-7.966406E-3,3.8756808E-4,4.0975872E-2,-4.4693056E-2,-6.0471185E-2,-2.600137E-2,-5.861633E-2,1.6728384E-2,-3.2506134E-2,-2.9934993E-2,-6.4994454E-2],"split_indices":[14,11,14,15,17,13,20,18,18,18,18,17,0,18,18,17,13,17,17,15,0,17,18,18,18,17,17,8,18,17,18,0,0,0,0,0,0,0,0,0,0,0,0,0,0,0,0,0,0,0,0,0,0,0,0,0,0,0,0,0,0,0,0],"split_type":[0,0,0,0,0,0,0,0,0,0,0,0,0,0,0,0,0,0,0,0,0,0,0,0,0,0,0,0,0,0,0,0,0,0,0,0,0,0,0,0,0,0,0,0,0,0,0,0,0,0,0,0,0,0,0,0,0,0,0,0,0,0,0],"sum_hessian":[1.4743489E3,9.9379803E2,4.8055084E2,7.301178E2,2.636802E2,2.5739987E2,2.2315097E2,1.8495891E2,5.451589E2,2.19935E2,4.3745224E1,1.1860797E2,1.387919E2,1.8522597E2,3.7925003E1,4.7063477E1,1.3789545E2,3.2904803E2,2.1611087E2,4.28556E1,1.7707939E2,2.5099041E1,1.8646181E1,3.5936535E1,8.267144E1,6.873019E1,7.0061714E1,1.2211786E2,6.31081E1,2.090924E1,1.7015764E1,5.310718E0,4.1752758E1,9.104567E1,4.6849773E1,1.399064E2,1.8914162E2,1.4698138E2,6.9129486E1,2.6808275E1,1.6047321E1,9.38682E1,8.32112E1,2.0910444E1,4.188597E0,1.6753823E0,1.6970798E1,4.230117E0,3.1706417E1,3.1104765E0,7.956097E1,1.728586E1,5.1444324E1,6.1220848E1,8.840868E0,1.6918978E1,1.0519888E2,2.0098358E1,4.3009743E1,1.4473408E1,6.4358325E0,3.5523934E0,1.3463371E1],"tree_param":{"num_deleted":"0","num_feature":"23","num_nodes":"63","size_leaf_vector":"1"}},{"base_weights":[1.1809856E-2,3.6678234E-1,-5.247191E-1,6.542675E-1,4.749907E-2,-1.2504749E-1,-7.8572196E-1,3.5516658E-1,8.2018214E-1,-3.7576345E-1,1.7436256E-1,-2.2156188E-1,1.0508093E0,-1.1345918E0,-5.7297873E-1,5.1673245E-1,-1.5414723E-2,9.147803E-1,5.996404E-1,-7.283111E-1,-1.6037679E-1,-3.0242267E-1,3.1262624E-1,2.611285E-1,-3.7686944E-1,-4.1582794E-3,1.18897E0,-8.1419635E-1,-1.2090563E0,-2.8738028E-1,-9.2290086E-1,2.9821789E-2,3.6464564E-3,1.6589912E-2,-4.3601688E-2,4.6255443E-2,-8.840422E-3,-2.852443E-3,3.9944854E-2,2.410954E-2,-5.1976334E-2,-1.0769094E-3,-4.7149815E-2,4.1395794E-3,-3.760901E-2,2.3286771E-2,-8.665456E-3,-7.2716908E-3,3.6974948E-2,5.782302E-3,-3.408056E-2,6.629861E-2,3.6424737E-2,-6.437708E-2,-7.377247E-3,-3.6266394E-2,-6.264497E-2,-2.1399654E-2,3.157878E-2,-3.5861652E-2,-6.0014933E-2],"categories":[],"categories_nodes":[],"categories_segments":[],"categories_sizes":[],"default_left":[0,0,0,0,0,0,0,0,0,0,0,0,0,0,0,0,0,0,0,0,0,0,0,0,0,0,0,0,0,0,0,0,0,0,0,0,0,0,0,0,0,0,0,0,0,0,0,0,0,0,0,0,0,0,0,0,0,0,0,0,0],"id":17,"left_children":[1,3,5,7,9,11,13,15,17,19,21,23,25,27,29,31,33,35,37,39,41,43,45,47,49,-1,51,53,55,57,59,-1,-1,-1,-1,-1,-1,-1,-1,-1,-1,-1,-1,-1,-1,-1,-1,-1,-1,-1,-1,-1,-1,-1,-1,-1,-1,-1,-1,-1,-1],"loss_changes":[2.7860046E2,8.077555E1,6.0662323E1,2.2693344E1,2.252065E1,2.6482033E1,2.5488083E1,1.0007877E1,5.6507874E0,7.230114E0,2.1349918E1,1.618435E1,2.87492E0,2.174057E0,2.1799637E1,4.071697E0,1.5660353E1,2.4866333E0,1.2096802E1,1.42183075E1,6.6450634E0,1.27082405E1,1.8713776E1,1.038141E1,2.4506376E1,0E0,3.4578323E-2,8.654388E0,1.3256683E0,1.6166485E1,4.7740097E0,0E0,0E0,0E0,0E0,0E0,0E0,0E0,0E0,0E0,0E0,0E0,0E0,0E0,0E0,0E0,0E0,0E0,0E0,0E0,0E0,0E0,0E0,0E0,0E0,0E0,0E0,0E0,0E0,0E0,0E0],"parents":[2147483647,0,0,1,1,2,2,3,3,4,4,5,5,6,6,7,7,8,8,9,9,10,10,11,11,12,12,13,13,14,14,15,15,16,16,17,17,18,18,19,19,20,20,21,21,22,22,23,23,24,24,26,26,27,27,28,28,29,29,30,30],"right_children":[2,4,6,8,10,12,14,16,18,20,22,24,26,28,30,32,34,36,38,40,42,44,46,48,50,-1,52,54,56,58,60,-1,-1,-1,-1,-1,-1,-1,-1,-1,-1,-1,-1,-1,-1,-1,-1,-1,-1,-1,-1,-1,-1,-1,-1,-1,-1,-1,-1,-1,-1],"split_conditions":[2.4205412E-1,-6.30332E-1,-3.8609758E-1,1.7417893E-1,8.3149505E-1,9.59669E-1,-2.7973586E-1,-8.656778E-1,-9.5597786E-1,1.7417893E-1,5.5253208E-2,-1.240918E0,-8.4731424E-1,-1.9745966E-2,1.1200147E0,2.30748E-1,9.338647E-2,1.3379613E0,4.735303E-1,-8.9031285E-1,1.5878861E0,1.10025875E-1,1.0793089E0,8.3149505E-1,2.8054994E-3,-4.1582794E-3,-2.8427497E-1,-7.231793E-1,-1.5091857E0,1.4198278E0,1.5677776E0,2.9821789E-2,3.6464564E-3,1.6589912E-2,-4.3601688E-2,4.6255443E-2,-8.840422E-3,-2.852443E-3,3.9944854E-2,2.410954E-2,-5.1976334E-2,-1.0769094E-3,-4.7149815E-2,4.1395794E-3,-3.760901E-2,2.3286771E-2,-8.665456E-3,-7.2716908E-3,3.6974948E-2,5.782302E-3,-3.408056E-2,6.629861E-2,3.6424737E-2,-6.437708E-2,-7.377247E-3,-3.6266394E-2,-6.264497E-2,-2.1399654E-2,3.157878E-2,-3.5861652E-2,-6.0014933E-2],"split_indices":[8,4,4,7,15,17,17,18,4,7,6,4,18,4,4,11,9,17,17,17,18,18,4,15,13,0,18,18,17,18,4,0,0,0,0,0,0,0,0,0,0,0,0,0,0,0,0,0,0,0,0,0,0,0,0,0,0,0,0,0,0],"split_type":[0,0,0,0,0,0,0,0,0,0,0,0,0,0,0,0,0,0,0,0,0,0,0,0,0,0,0,0,0,0,0,0,0,0,0,0,0,0,0,0,0,0,0,0,0,0,0,0,0,0,0,0,0,0,0,0,0,0,0,0,0],"sum_hessian":[1.4608198E3,8.793501E2,5.814697E2,4.6216446E2,4.1718567E2,2.3029692E2,3.511728E2,1.6601793E2,2.961465E2,9.575393E1,3.2143173E2,2.13578E2,1.671892E1,1.3138547E2,2.1978734E2,1.1533837E2,5.067956E1,2.0504677E2,9.1099754E1,3.5411125E1,6.0342804E1,7.199131E1,2.4944041E2,5.1825336E1,1.6175266E2,1.8589946E0,1.4859924E1,2.7027832E1,1.0435763E2,1.22019264E2,9.776807E1,9.7486664E1,1.7851702E1,3.6498363E1,1.4181197E1,2.0327591E2,1.770865E0,2.1373358E1,6.9726395E1,7.1297846E0,2.828134E1,5.212349E1,8.219313E0,3.9217613E1,3.2773697E1,1.897084E2,5.9732006E1,2.8391588E1,2.3433748E1,6.2065147E1,9.9687515E1,1.00039425E1,4.855982E0,1.5260794E1,1.1767039E1,1.0130438E1,9.4227196E1,1.0628974E2,1.5729521E1,5.8201782E1,3.9566284E1],"tree_param":{"num_deleted":"0","num_feature":"23","num_nodes":"61","size_leaf_vector":"1"}},{"base_weights":[-5.455817E-3,3.127587E-1,-6.929302E-1,4.5510495E-1,-7.721317E-2,-4.5224375E-1,-9.651331E-1,6.3716227E-1,2.7420765E-1,6.793259E-2,-4.4481272E-1,-7.608262E-1,-1.6798271E-1,-4.8853084E-1,-1.0538632E0,3.5932627E-1,7.922724E-1,4.905879E-2,5.061509E-1,3.9606422E-1,-1.1307377E-1,-8.50597E-1,-1.07170306E-1,-4.6713233E-1,-9.6932137E-1,-4.082974E-1,6.5758355E-2,-6.0382515E-2,-1.950342E-1,-1.1498923E0,-7.0686495E-1,2.7942805E-2,-9.327561E-3,3.1486075E-2,5.0207235E-2,5.9310477E-3,-6.1512914E-2,2.614447E-2,-5.2957095E-2,-2.568925E-2,2.5732478E-2,1.4380383E-2,-1.6389346E-2,-2.7106732E-2,-8.456708E-2,6.8550245E-3,-4.6172224E-2,-4.0836774E-2,-7.2319866E-3,-5.2545775E-2,-5.408185E-3,-2.304557E-2,5.0207537E-2,-6.4615556E-3,1.7597456E-2,-3.28859E-2,6.8522855E-3,-4.514556E-2,-5.921468E-2,-7.080632E-3,-5.9324022E-2],"categories":[],"categories_nodes":[],"categories_segments":[],"categories_sizes":[],"default_left":[0,0,0,0,0,0,0,0,0,0,0,0,0,0,1,0,0,0,0,0,0,0,0,0,0,0,0,0,0,0,0,0,0,0,0,0,0,0,0,0,0,0,0,0,0,0,0,0,0,0,0,0,0,0,0,0,0,0,0,0,0],"id":18,"left_children":[1,3,5,7,9,11,13,15,17,19,21,23,25,27,29,31,33,35,37,39,41,43,45,47,49,51,53,-1,55,57,59,-1,-1,-1,-1,-1,-1,-1,-1,-1,-1,-1,-1,-1,-1,-1,-1,-1,-1,-1,-1,-1,-1,-1,-1,-1,-1,-1,-1,-1,-1],"loss_changes":[3.185421E2,5.528962E1,2.9748352E1,2.3845505E1,1.4277597E1,2.1485992E1,8.591095E0,1.5348282E1,1.917171E1,1.1466584E1,1.0283438E1,6.764389E0,7.3031917E0,7.29086E0,5.2073517E0,1.4458975E1,7.35643E0,1.6844198E1,5.295059E0,7.664898E0,1.0823796E1,7.964428E0,8.595812E0,5.6164637E0,4.6643066E0,5.219674E0,3.7580523E0,0E0,4.1644197E0,1.1943054E-1,1.1152237E1,0E0,0E0,0E0,0E0,0E0,0E0,0E0,0E0,0E0,0E0,0E0,0E0,0E0,0E0,0E0,0E0,0E0,0E0,0E0,0E0,0E0,0E0,0E0,0E0,0E0,0E0,0E0,0E0,0E0,0E0],"parents":[2147483647,0,0,1,1,2,2,3,3,4,4,5,5,6,6,7,7,8,8,9,9,10,10,11,11,12,12,13,13,14,14,15,15,16,16,17,17,18,18,19,19,20,20,21,21,22,22,23,23,24,24,25,25,26,26,28,28,29,29,30,30],"right_children":[2,4,6,8,10,12,14,16,18,20,22,24,26,28,30,32,34,36,38,40,42,44,46,48,50,52,54,-1,56,58,60,-1,-1,-1,-1,-1,-1,-1,-1,-1,-1,-1,-1,-1,-1,-1,-1,-1,-1,-1,-1,-1,-1,-1,-1,-1,-1,-1,-1,-1,-1],"split_conditions":[3.708072E-1,2.30748E-1,1.5693889E0,-8.745664E-1,-3.8609758E-1,1.1354446E0,2.30748E-1,1.7417893E-1,6.412677E-3,9.338647E-2,1.1104958E0,1.7417893E-1,9.9433625E-1,6.412677E-3,1.7876254E0,-9.206149E-1,5.5253208E-2,1.1200147E0,1.6513885E0,-9.494437E-1,-9.996637E-1,1.240874E0,7.53663E-1,9.9433625E-1,1.5054146E0,2.4956205E0,1.3046223E0,-6.0382515E-2,1.364249E0,1.0558916E-1,1.5677776E0,2.7942805E-2,-9.327561E-3,3.1486075E-2,5.0207235E-2,5.9310477E-3,-6.1512914E-2,2.614447E-2,-5.2957095E-2,-2.568925E-2,2.5732478E-2,1.4380383E-2,-1.6389346E-2,-2.7106732E-2,-8.456708E-2,6.8550245E-3,-4.6172224E-2,-4.0836774E-2,-7.2319866E-3,-5.2545775E-2,-5.408185E-3,-2.304557E-2,5.0207537E-2,-6.4615556E-3,1.7597456E-2,-3.28859E-2,6.8522855E-3,-4.514556E-2,-5.921468E-2,-7.080632E-3,-5.9324022E-2],"split_indices":[14,11,14,4,4,12,11,7,12,9,6,7,0,12,18,18,6,4,21,18,18,10,4,0,18,18,18,0,4,10,4,0,0,0,0,0,0,0,0,0,0,0,0,0,0,0,0,0,0,0,0,0,0,0,0,0,0,0,0,0,0],"split_type":[0,0,0,0,0,0,0,0,0,0,0,0,0,0,0,0,0,0,0,0,0,0,0,0,0,0,0,0,0,0,0,0,0,0,0,0,0,0,0,0,0,0,0,0,0,0,0,0,0,0,0,0,0,0,0,0,0,0,0,0,0],"sum_hessian":[1.4541062E3,9.943786E2,4.5972766E2,7.2835126E2,2.6602734E2,2.4540111E2,2.1432655E2,3.617546E2,3.6659665E2,1.913059E2,7.472145E1,1.1686291E2,1.2853821E2,3.4660107E1,1.7966644E2,1.3079283E2,2.3096179E2,1.8663768E2,1.7995895E2,6.7589775E1,1.2371611E2,3.324628E1,4.1475166E1,4.986367E1,6.699924E1,6.300968E1,6.552853E1,9.14312E0,2.5516987E1,1.3891025E2,4.0756187E1,9.5764946E1,3.502789E1,1.3294049E2,9.802129E1,1.778732E2,8.764481E0,1.7871382E2,1.2451332E0,7.4092765E0,6.01805E1,4.3046497E1,8.066962E1,2.5525871E1,7.72041E0,3.256277E1,8.912397E0,2.3190777E1,2.6672892E1,6.0999256E1,5.999985E0,6.139633E1,1.613347E0,3.9300488E1,2.6228039E1,1.0252154E1,1.52648325E1,2.0314053E1,1.185962E2,1.9302465E1,2.145372E1],"tree_param":{"num_deleted":"0","num_feature":"23","num_nodes":"61","size_leaf_vector":"1"}},{"base_weights":[7.33468E-3,3.3074668E-1,-6.9554526E-1,4.8264113E-1,-5.728151E-2,-3.4375328E-1,-8.88763E-1,6.524909E-1,2.0379493E-1,2.0458578E-1,-2.2897463E-1,-1.908748E-1,-7.0119977E-1,-9.996772E-1,-3.4804934E-1,3.4183198E-1,8.247155E-1,7.4700594E-2,7.6309776E-1,-1.7445691E-1,5.1081586E-1,3.6354527E-1,-4.2926124E-1,-5.2444905E-1,5.747111E-2,-8.727242E-1,-1.2066547E-1,-8.0195713E-1,-1.150747E0,1.6089845E-1,-8.1154364E-1,2.487745E-2,-7.044904E-3,2.3913717E-2,4.5094673E-2,7.0947236E-3,-3.4431E-2,4.1452955E-2,-3.146903E-2,6.5597207E-3,-4.9365263E-2,2.9714132E-2,-3.0226503E-2,-4.5338914E-2,2.525331E-2,-2.7724667E-2,5.615017E-3,8.795811E-3,-3.9611407E-2,-1.3092856E-2,1.9034829E-2,-1.4458853E-3,-5.1721103E-2,1.6403893E-2,-5.583486E-2,-4.584308E-2,-1.1839716E-2,-4.663149E-2,-5.9620965E-2,1.837179E-2,-5.918637E-2,2.9051563E-2,-4.4513892E-2],"categories":[],"categories_nodes":[],"categories_segments":[],"categories_sizes":[],"default_left":[0,0,0,0,0,0,1,0,0,0,0,0,1,0,0,0,0,0,0,0,0,0,0,0,0,0,0,0,0,0,0,0,0,0,0,0,0,0,0,0,0,0,0,0,0,0,0,0,0,0,0,0,0,0,0,0,0,0,0,0,0,0,0],"id":19,"left_children":[1,3,5,7,9,11,13,15,17,19,21,23,25,27,29,31,33,35,37,39,41,43,45,47,49,51,53,55,57,59,61,-1,-1,-1,-1,-1,-1,-1,-1,-1,-1,-1,-1,-1,-1,-1,-1,-1,-1,-1,-1,-1,-1,-1,-1,-1,-1,-1,-1,-1,-1,-1,-1],"loss_changes":[3.2700076E2,5.8093407E1,3.05074E1,3.3405365E1,1.2548223E1,8.737406E0,1.7162582E1,2.3239029E1,1.940235E1,1.2931361E1,2.0142189E1,9.563754E0,4.7000675E0,6.2979126E0,1.2215761E1,1.198456E1,7.1117706E0,1.1385579E1,5.15399E0,1.2598315E1,6.0800476E0,8.204126E0,8.629738E0,9.368802E0,7.001656E0,5.0309296E0,5.804518E0,6.796669E0,1.1260986E-1,7.4480624E0,3.4752808E0,0E0,0E0,0E0,0E0,0E0,0E0,0E0,0E0,0E0,0E0,0E0,0E0,0E0,0E0,0E0,0E0,0E0,0E0,0E0,0E0,0E0,0E0,0E0,0E0,0E0,0E0,0E0,0E0,0E0,0E0,0E0,0E0],"parents":[2147483647,0,0,1,1,2,2,3,3,4,4,5,5,6,6,7,7,8,8,9,9,10,10,11,11,12,12,13,13,14,14,15,15,16,16,17,17,18,18,19,19,20,20,21,21,22,22,23,23,24,24,25,25,26,26,27,27,28,28,29,29,30,30],"right_children":[2,4,6,8,10,12,14,16,18,20,22,24,26,28,30,32,34,36,38,40,42,44,46,48,50,52,54,56,58,60,62,-1,-1,-1,-1,-1,-1,-1,-1,-1,-1,-1,-1,-1,-1,-1,-1,-1,-1,-1,-1,-1,-1,-1,-1,-1,-1,-1,-1,-1,-1,-1,-1],"split_conditions":[3.708072E-1,2.4205412E-1,2.4205412E-1,-6.30332E-1,9.338647E-2,1.5693889E0,1.3780725E0,1.7417893E-1,1.2784716E0,1.7417893E-1,-9.996637E-1,7.5370187E-1,2.1589334E0,1.5693889E0,2.074992E0,-5.1925045E-1,8.3149505E-1,1.3362778E0,1.5832055E0,-4.7653282E-1,1.4314431E0,4.0093315E-1,1.240874E0,-4.8309278E-1,4.0093315E-1,-1.681967E-1,1.5832055E0,1.2204918E0,6.412677E-3,2.0822852E0,1.4231501E0,2.487745E-2,-7.044904E-3,2.3913717E-2,4.5094673E-2,7.0947236E-3,-3.4431E-2,4.1452955E-2,-3.146903E-2,6.5597207E-3,-4.9365263E-2,2.9714132E-2,-3.0226503E-2,-4.5338914E-2,2.525331E-2,-2.7724667E-2,5.615017E-3,8.795811E-3,-3.9611407E-2,-1.3092856E-2,1.9034829E-2,-1.4458853E-3,-5.1721103E-2,1.6403893E-2,-5.583486E-2,-4.584308E-2,-1.1839716E-2,-4.663149E-2,-5.9620965E-2,1.837179E-2,-5.918637E-2,2.9051563E-2,-4.4513892E-2],"split_indices":[14,8,8,4,9,14,20,7,20,7,18,20,18,14,18,20,15,16,20,18,20,16,10,18,16,20,20,21,12,21,20,0,0,0,0,0,0,0,0,0,0,0,0,0,0,0,0,0,0,0,0,0,0,0,0,0,0,0,0,0,0,0,0],"split_type":[0,0,0,0,0,0,0,0,0,0,0,0,0,0,0,0,0,0,0,0,0,0,0,0,0,0,0,0,0,0,0,0,0,0,0,0,0,0,0,0,0,0,0,0,0,0,0,0,0,0,0,0,0,0,0,0,0,0,0,0,0,0,0],"sum_hessian":[1.4364933E3,9.841785E2,4.5231482E2,7.07128E2,2.7705054E2,1.6134064E2,2.9097418E2,4.3861838E2,2.6850958E2,1.0963818E2,1.6741234E2,1.14082146E2,4.7258495E1,2.4074286E2,5.023133E1,1.5750163E2,2.8111676E2,2.1907729E2,4.9432312E1,4.918667E1,6.045152E1,4.2087433E1,1.25324905E2,4.8212334E1,6.5869804E1,3.6091583E1,1.1166913E1,1.0700424E2,1.3373862E2,2.425289E1,2.5978441E1,1.1906383E2,3.84378E1,5.252704E1,2.2858972E2,2.0210078E2,1.6976498E1,4.7582935E1,1.849376E0,3.635491E1,1.2831757E1,5.667726E1,3.7742586E0,3.6767468E0,3.8410686E1,1.01767944E2,2.3556955E1,1.3429935E1,3.47824E1,3.3230167E1,3.263964E1,5.9935594E0,3.0098022E1,8.160823E0,3.00609E0,8.840761E1,1.8596634E1,2.520312E1,1.0853549E2,2.1653591E1,2.5993E0,1.0487896E0,2.4929651E1],"tree_param":{"num_deleted":"0","num_feature":"23","num_nodes":"63","size_leaf_vector":"1"}},{"base_weights":[8.231432E-4,2.7189225E-1,-5.75248E-1,4.1076216E-1,-9.900449E-2,-2.0059636E-1,-7.761137E-1,5.7019748E-2,5.2956825E-1,3.9234474E-1,-2.2188914E-1,-6.1303705E-1,-3.533353E-2,-8.8830554E-1,-2.4791409E-1,-1.8879678E-2,9.5220584E-1,1.5643093E-1,6.412715E-1,-3.004629E-1,4.6290487E-1,-9.0088934E-1,-1.4213847E-1,6.406689E-1,-7.311797E-1,-6.0950447E-2,1.3878084E-2,-6.941087E-1,-1.0363532E0,4.6229845E-1,-4.8915276E-1,1.9809386E-2,-1.1718801E-2,6.226453E-2,3.1361878E-3,1.2590251E-2,-4.3922704E-2,4.4806384E-2,2.8232327E-2,7.457965E-3,-2.2900393E-2,1.1754641E-2,3.853501E-2,1.0172643E-2,-4.8678026E-2,-4.442844E-3,-3.256162E-2,-3.7956156E-2,6.5295614E-2,-6.556242E-2,-2.328883E-2,6.085238E-2,-4.002854E-3,-4.0194783E-2,-1.0842381E-2,-4.8306603E-2,-6.1208714E-2,3.891332E-2,-5.8634463E-3,3.9904704E-3,-3.9633665E-2],"categories":[],"categories_nodes":[],"categories_segments":[],"categories_sizes":[],"default_left":[0,0,0,0,0,0,1,0,0,0,0,0,0,0,0,0,0,0,0,0,0,0,0,0,0,0,0,0,0,0,0,0,0,0,0,0,0,0,0,0,0,0,0,0,0,0,0,0,0,0,0,0,0,0,0,0,0,0,0,0,0],"id":20,"left_children":[1,3,5,7,9,11,13,15,17,19,21,23,25,27,29,31,33,35,37,39,41,43,45,47,49,-1,51,53,55,57,59,-1,-1,-1,-1,-1,-1,-1,-1,-1,-1,-1,-1,-1,-1,-1,-1,-1,-1,-1,-1,-1,-1,-1,-1,-1,-1,-1,-1,-1,-1],"loss_changes":[2.2202559E2,4.9840508E1,3.4082092E1,2.9542717E1,1.6039164E1,1.089347E1,1.7310059E1,1.211434E1,2.1850174E1,2.7405872E0,1.1350882E1,7.2446194E0,6.7383432E0,6.2845E0,9.343138E0,1.486027E1,3.5545197E0,1.2327389E1,7.4025726E0,4.5971227E-1,3.233058E0,1.9711647E0,5.1200237E0,5.1564913E0,5.8977566E0,0E0,1.2729792E1,5.5059395E0,6.1364746E-1,2.6561368E0,7.006632E0,0E0,0E0,0E0,0E0,0E0,0E0,0E0,0E0,0E0,0E0,0E0,0E0,0E0,0E0,0E0,0E0,0E0,0E0,0E0,0E0,0E0,0E0,0E0,0E0,0E0,0E0,0E0,0E0,0E0,0E0],"parents":[2147483647,0,0,1,1,2,2,3,3,4,4,5,5,6,6,7,7,8,8,9,9,10,10,11,11,12,12,13,13,14,14,15,15,16,16,17,17,18,18,19,19,20,20,21,21,22,22,23,23,24,24,26,26,27,27,28,28,29,29,30,30],"right_children":[2,4,6,8,10,12,14,16,18,20,22,24,26,28,30,32,34,36,38,40,42,44,46,48,50,-1,52,54,56,58,60,-1,-1,-1,-1,-1,-1,-1,-1,-1,-1,-1,-1,-1,-1,-1,-1,-1,-1,-1,-1,-1,-1,-1,-1,-1,-1,-1,-1,-1,-1],"split_conditions":[3.708072E-1,2.4205412E-1,2.4205412E-1,4.0093315E-1,-1.240918E0,8.3149505E-1,1.3780725E0,1.2242905E0,8.3149505E-1,-1.0018358E0,-1.3599145E0,-8.1190425E-1,-6.665718E-1,1.5693889E0,9.338647E-2,-8.745664E-1,2.30748E-1,2.5331426E-1,-9.6074265E-1,1.3362778E0,8.3149505E-1,-1.5733931E0,8.757802E-1,1.0317425E0,-5.3441155E-1,-6.0950447E-2,-4.8309278E-1,1.2204918E0,1.5677776E0,1.5149872E0,1.1200147E0,1.9809386E-2,-1.1718801E-2,6.226453E-2,3.1361878E-3,1.2590251E-2,-4.3922704E-2,4.4806384E-2,2.8232327E-2,7.457965E-3,-2.2900393E-2,1.1754641E-2,3.853501E-2,1.0172643E-2,-4.8678026E-2,-4.442844E-3,-3.256162E-2,-3.7956156E-2,6.5295614E-2,-6.556242E-2,-2.328883E-2,6.085238E-2,-4.002854E-3,-4.0194783E-2,-1.0842381E-2,-4.8306603E-2,-6.1208714E-2,3.891332E-2,-5.8634463E-3,3.9904704E-3,-3.9633665E-2],"split_indices":[14,8,8,16,4,15,20,20,15,18,20,20,20,14,9,4,11,18,18,16,15,20,4,2,16,0,18,21,4,20,4,0,0,0,0,0,0,0,0,0,0,0,0,0,0,0,0,0,0,0,0,0,0,0,0,0,0,0,0,0,0],"split_type":[0,0,0,0,0,0,0,0,0,0,0,0,0,0,0,0,0,0,0,0,0,0,0,0,0,0,0,0,0,0,0,0,0,0,0,0,0,0,0,0,0,0,0,0,0,0,0,0,0,0,0,0,0,0,0,0,0,0,0,0,0],"sum_hessian":[1.4198258E3,9.6586707E2,4.5395877E2,7.026687E2,2.6319836E2,1.5913719E2,2.9482156E2,1.7703401E2,5.256347E2,5.221721E1,2.1098116E2,4.474906E1,1.1438814E2,2.4260869E2,5.221288E1,1.6409955E2,1.2934466E1,1.2165491E2,4.039798E2,4.5254073E0,4.7691803E1,2.109355E1,1.898876E2,3.472866E0,4.1276196E1,3.6170607E0,1.1077107E2,1.0740805E2,1.3520064E2,1.3006139E1,3.920674E1,5.5794777E1,1.0830477E2,9.427938E0,3.5065281E0,1.1208219E2,9.572713E0,9.091149E1,3.1306833E2,1.1880434E0,3.3373642E0,2.842045E1,1.9271353E1,1.1912448E0,1.9902306E1,1.7296019E2,1.6927416E1,1.0733091E0,2.399557E0,1.172007E1,2.9556124E1,7.156082E0,1.0361499E2,8.676471E1,2.0643343E1,1.0288033E2,3.232031E1,8.19536E0,4.810778E0,1.3895705E1,2.5311037E1],"tree_param":{"num_deleted":"0","num_feature":"23","num_nodes":"61","size_leaf_vector":"1"}},{"base_weights":[-8.695266E-3,2.8687638E-1,-4.5134357E-1,4.950951E-1,-8.327595E-2,-1.0407024E-1,-6.004324E-1,1.6420497E-1,6.793312E-1,2.893483E-2,-4.218169E-1,-2.5888032E-1,4.0904546E-1,1.8156028E-1,-7.012415E-1,2.5194433E-1,-9.9330884E-1,3.1387642E-1,7.661406E-1,-3.2781243E-1,1.558502E-1,-9.7794724E-1,-1.9860926E-1,9.9272005E-2,-5.533942E-1,5.956424E-1,-3.717677E-1,-1.337406E-1,3.498548E-1,-7.789578E-1,-2.0415513E-1,2.2518512E-2,-1.4363202E-3,-2.6448524E-2,-7.194182E-2,4.77552E-2,4.973528E-3,5.368389E-2,3.485245E-2,8.301654E-3,-3.774033E-2,1.8011717E-2,-5.3226077E-3,-5.4121472E-2,1.4117844E-2,-1.5997166E-3,-5.584837E-2,-4.5089847E-3,2.314425E-2,-2.2902824E-2,-5.2452773E-2,-1.704832E-2,4.1397795E-2,5.286442E-3,-5.623276E-2,-2.0100879E-2,2.3765264E-2,3.9805613E-2,-4.7211996E-3,-3.1487316E-2,-5.729751E-2,2.4385182E-2,-2.8339017E-2],"categories":[],"categories_nodes":[],"categories_segments":[],"categories_sizes":[],"default_left":[0,0,0,0,0,0,0,0,0,0,0,0,0,0,0,0,0,0,0,0,0,0,0,0,0,0,0,0,0,0,0,0,0,0,0,0,0,0,0,0,0,0,0,0,0,0,0,0,0,0,0,0,0,0,0,0,0,0,0,0,0,0,0],"id":21,"left_children":[1,3,5,7,9,11,13,15,17,19,21,23,25,27,29,31,33,35,37,39,41,43,45,47,49,51,53,55,57,59,61,-1,-1,-1,-1,-1,-1,-1,-1,-1,-1,-1,-1,-1,-1,-1,-1,-1,-1,-1,-1,-1,-1,-1,-1,-1,-1,-1,-1,-1,-1,-1,-1],"loss_changes":[1.8281456E2,6.4617325E1,2.8902733E1,3.2586426E1,1.1503299E1,1.355014E1,3.0966507E1,1.9866653E1,1.0679718E1,1.0379881E1,9.1613035E0,1.3834116E1,5.9932847E0,2.4593973E0,1.3235931E1,1.00564995E1,2.0961838E0,9.221401E0,5.146942E0,1.2816177E1,9.095421E0,3.1144638E0,8.385508E0,4.160866E0,2.9141388E0,7.323084E0,3.087247E0,2.8945982E0,6.0072722E0,1.5678772E1,1.2378006E1,0E0,0E0,0E0,0E0,0E0,0E0,0E0,0E0,0E0,0E0,0E0,0E0,0E0,0E0,0E0,0E0,0E0,0E0,0E0,0E0,0E0,0E0,0E0,0E0,0E0,0E0,0E0,0E0,0E0,0E0,0E0,0E0],"parents":[2147483647,0,0,1,1,2,2,3,3,4,4,5,5,6,6,7,7,8,8,9,9,10,10,11,11,12,12,13,13,14,14,15,15,16,16,17,17,18,18,19,19,20,20,21,21,22,22,23,23,24,24,25,25,26,26,27,27,28,28,29,29,30,30],"right_children":[2,4,6,8,10,12,14,16,18,20,22,24,26,28,30,32,34,36,38,40,42,44,46,48,50,52,54,56,58,60,62,-1,-1,-1,-1,-1,-1,-1,-1,-1,-1,-1,-1,-1,-1,-1,-1,-1,-1,-1,-1,-1,-1,-1,-1,-1,-1,-1,-1,-1,-1,-1,-1],"split_conditions":[2.30748E-1,-2.2327463E-1,9.338647E-2,1.7417893E-1,1.1200147E0,1.1454968E0,-1.240918E0,-3.7328564E-2,8.3149505E-1,1.7417893E-1,6.412677E-3,-5.082148E-1,1.529934E0,-1.4942532E0,1.4603069E0,-1.0780951E0,1.8915908E-2,-4.0457723E-1,-4.8028082E-1,3.318852E-1,9.338647E-2,1.2204918E0,1.3661673E0,-8.3386064E-1,1.119429E0,8.3149505E-1,1.201426E0,8.3149505E-1,-1.4826388E0,9.978974E-1,1.7588185E0,2.2518512E-2,-1.4363202E-3,-2.6448524E-2,-7.194182E-2,4.77552E-2,4.973528E-3,5.368389E-2,3.485245E-2,8.301654E-3,-3.774033E-2,1.8011717E-2,-5.3226077E-3,-5.4121472E-2,1.4117844E-2,-1.5997166E-3,-5.584837E-2,-4.5089847E-3,2.314425E-2,-2.2902824E-2,-5.2452773E-2,-1.704832E-2,4.1397795E-2,5.286442E-3,-5.623276E-2,-2.0100879E-2,2.3765264E-2,3.9805613E-2,-4.7211996E-3,-3.1487316E-2,-5.729751E-2,2.4385182E-2,-2.8339017E-2],"split_indices":[11,4,9,7,4,17,4,20,15,7,12,4,20,17,20,4,17,20,20,5,9,21,17,4,18,15,4,15,17,4,18,0,0,0,0,0,0,0,0,0,0,0,0,0,0,0,0,0,0,0,0,0,0,0,0,0,0,0,0,0,0,0,0],"split_type":[0,0,0,0,0,0,0,0,0,0,0,0,0,0,0,0,0,0,0,0,0,0,0,0,0,0,0,0,0,0,0,0,0,0,0,0,0,0,0,0,0,0,0,0,0,0,0,0,0,0,0,0,0,0,0,0,0,0,0,0,0,0,0],"sum_hessian":[1.3953091E3,8.368603E2,5.584488E2,5.353671E2,3.014932E2,1.6824738E2,3.902014E2,1.9215173E2,3.432154E2,2.271259E2,7.436729E1,1.2963208E2,3.86153E1,4.4466507E1,3.457349E2,1.7934012E2,1.281161E1,6.676408E1,2.7645132E2,5.9183548E1,1.6794235E2,2.0330853E1,5.403643E1,5.8795277E1,7.083681E1,3.1358475E1,7.256825E0,1.5546102E1,2.8920406E1,2.984994E2,4.7235508E1,1.047092E2,7.463093E1,7.3444047E0,5.4672055E0,1.5864164E1,5.089991E1,4.804697E1,2.2840436E2,2.7726858E1,3.1456688E1,9.4182594E1,7.3759766E1,1.8904741E1,1.4261115E0,4.6614197E1,7.4222336E0,3.9149414E1,1.9645863E1,6.102342E1,9.813386E0,6.139283E0,2.5219193E1,4.9665236E0,2.2903013E0,1.1028229E1,4.5178723E0,1.4032994E1,1.4887412E1,2.1414746E2,8.435192E1,1.6125147E1,3.1110363E1],"tree_param":{"num_deleted":"0","num_feature":"23","num_nodes":"63","size_leaf_vector":"1"}},{"base_weights":[1.5861029E-2,2.8426787E-1,-5.810565E-1,4.041125E-1,-1.6668243E-2,-3.067044E-1,-9.125042E-1,5.821603E-1,2.2854845E-1,1.2524709E-1,-3.6409384E-1,-6.163788E-1,3.6130033E-2,-5.775859E-1,-1.0101067E0,3.9848068E-1,8.73584E-1,7.3140666E-2,6.4869004E-1,1.3320226E-2,8.182801E-1,-5.4517996E-1,1.6129951E-1,-9.1660476E-1,-4.326875E-1,1.0063824E-1,-9.395936E-1,6.0992455E-4,-8.4964263E-1,-6.747019E-1,-1.0769837E0,3.4846004E-2,7.2265873E-3,4.440243E-2,1.5486652E-3,-1.0593402E-2,1.1747162E-2,4.730861E-2,2.3612434E-2,-5.203368E-2,2.5344265E-3,-1.3476585E-2,4.8626993E-2,-4.6920918E-2,-1.3839415E-2,-1.5452141E-2,3.585967E-2,-1.6356198E-2,-5.5508148E-2,-4.513082E-2,-3.2408293E-3,2.1509184E-3,4.9426414E-2,-6.465358E-2,2.782332E-2,-3.263532E-2,3.7481237E-2,-5.245859E-2,-1.5633514E-2,-5.8580052E-2,-1.8465573E-2,-4.6403047E-2,-5.85348E-2],"categories":[],"categories_nodes":[],"categories_segments":[],"categories_sizes":[],"default_left":[0,0,0,0,0,0,0,0,0,0,0,0,0,0,0,0,0,0,0,0,0,0,0,0,0,0,0,0,0,0,0,0,0,0,0,0,0,0,0,0,0,0,0,0,0,0,0,0,0,0,0,0,0,0,0,0,0,0,0,0,0,0,0],"id":22,"left_children":[1,3,5,7,9,11,13,15,17,19,21,23,25,27,29,31,33,35,37,39,41,43,45,47,49,51,53,55,57,59,61,-1,-1,-1,-1,-1,-1,-1,-1,-1,-1,-1,-1,-1,-1,-1,-1,-1,-1,-1,-1,-1,-1,-1,-1,-1,-1,-1,-1,-1,-1,-1,-1],"loss_changes":[2.2323943E2,3.467031E1,3.9021698E1,2.135495E1,1.3589863E1,2.5287294E1,5.79834E0,1.7886452E1,2.2659721E1,1.517555E1,7.6919823E0,6.501934E0,7.262724E0,7.2978096E0,2.6343384E0,1.5874748E1,1.5674286E0,1.1808901E1,4.475357E0,6.731583E0,4.827442E0,6.0374928E0,5.7797294E0,4.952568E0,1.3685E1,5.468739E0,4.505471E0,8.241892E0,3.0520039E0,3.7535553E0,6.335907E-1,0E0,0E0,0E0,0E0,0E0,0E0,0E0,0E0,0E0,0E0,0E0,0E0,0E0,0E0,0E0,0E0,0E0,0E0,0E0,0E0,0E0,0E0,0E0,0E0,0E0,0E0,0E0,0E0,0E0,0E0,0E0,0E0],"parents":[2147483647,0,0,1,1,2,2,3,3,4,4,5,5,6,6,7,7,8,8,9,9,10,10,11,11,12,12,13,13,14,14,15,15,16,16,17,17,18,18,19,19,20,20,21,21,22,22,23,23,24,24,25,25,26,26,27,27,28,28,29,29,30,30],"right_children":[2,4,6,8,10,12,14,16,18,20,22,24,26,28,30,32,34,36,38,40,42,44,46,48,50,52,54,56,58,60,62,-1,-1,-1,-1,-1,-1,-1,-1,-1,-1,-1,-1,-1,-1,-1,-1,-1,-1,-1,-1,-1,-1,-1,-1,-1,-1,-1,-1,-1,-1,-1,-1],"split_conditions":[3.708072E-1,2.4205412E-1,1.5693889E0,-8.745664E-1,-3.8609758E-1,5.6312585E-1,2.4205412E-1,3.5738793E-1,1.0177402E0,6.21197E-1,2.2636063E0,-6.665718E-1,1.5677776E0,2.30748E-1,9.338647E-2,-9.751351E-1,1.2267964E0,4.0093315E-1,1.1521335E0,-1.5158224E0,-8.986971E-1,1.0317425E0,1.0758114E0,-5.3441155E-1,9.9433625E-1,2.242085E0,1.4690362E0,1.527072E0,1.3661673E0,1.1607203E0,1.1200147E0,3.4846004E-2,7.2265873E-3,4.440243E-2,1.5486652E-3,-1.0593402E-2,1.1747162E-2,4.730861E-2,2.3612434E-2,-5.203368E-2,2.5344265E-3,-1.3476585E-2,4.8626993E-2,-4.6920918E-2,-1.3839415E-2,-1.5452141E-2,3.585967E-2,-1.6356198E-2,-5.5508148E-2,-4.513082E-2,-3.2408293E-3,2.1509184E-3,4.9426414E-2,-6.465358E-2,2.782332E-2,-3.263532E-2,3.7481237E-2,-5.245859E-2,-1.5633514E-2,-5.8580052E-2,-1.8465573E-2,-4.6403047E-2,-5.85348E-2],"split_indices":[14,8,14,4,4,17,8,17,17,17,1,20,4,11,9,18,17,16,17,17,18,2,17,16,0,18,17,4,17,4,4,0,0,0,0,0,0,0,0,0,0,0,0,0,0,0,0,0,0,0,0,0,0,0,0,0,0,0,0,0,0,0,0],"split_type":[0,0,0,0,0,0,0,0,0,0,0,0,0,0,0,0,0,0,0,0,0,0,0,0,0,0,0,0,0,0,0,0,0,0,0,0,0,0,0,0,0,0,0,0,0,0,0,0,0,0,0,0,0,0,0,0,0,0,0,0,0,0,0],"sum_hessian":[1.391328E3,9.6012634E2,4.3120166E2,6.8642285E2,2.737035E2,2.3697424E2,1.942274E2,3.396509E2,3.4677194E2,1.9477989E2,7.892359E1,1.2408933E2,1.1288491E2,4.539032E1,1.4883708E2,2.0979065E2,1.2986026E2,2.5399489E2,9.277706E1,1.6857393E2,2.6205965E1,5.866574E1,2.0257847E1,4.558882E1,7.850051E1,1.0672579E2,6.1591253E0,1.4842872E1,3.054745E1,2.658675E1,1.22250336E2,9.5644936E1,1.1414571E2,1.2761561E2,2.2446427E0,9.186643E1,1.6212845E2,3.2916664E1,5.9860394E1,4.852667E0,1.6372127E2,3.1618574E0,2.3044107E1,2.2785198E1,3.5880543E1,1.1213856E1,9.043992E0,1.193398E1,3.3654842E1,3.3830647E1,4.4669865E1,1.0120642E2,5.519369E0,5.091763E0,1.0673624E0,7.99657E0,6.8463016E0,2.157624E1,8.971209E0,9.040539E0,1.7546211E1,5.142757E1,7.082276E1],"tree_param":{"num_deleted":"0","num_feature":"23","num_nodes":"63","size_leaf_vector":"1"}},{"base_weights":[5.858442E-4,2.598135E-1,-5.796003E-1,3.9365244E-1,-7.9209715E-2,-1.0549299E0,-4.3618616E-1,6.1424685E-1,2.4032782E-1,-1.8334715E-1,3.693992E-1,-1.134271E0,-8.690625E-1,-2.3163182E-1,-7.359608E-1,4.2435217E-1,9.5560664E-1,-3.665947E-2,4.4946343E-1,-7.204937E-2,-1.4465772E-1,1.0002078E0,-2.7128717E-1,-8.224821E-1,-6.0597766E-2,3.3346858E-2,-9.3809396E-1,-3.8914907E-1,9.60022E-2,-8.64615E-1,-3.432058E-1,2.5273824E-2,-1.2796752E-2,4.9028985E-2,-2.972661E-2,-1.5688946E-2,6.085632E-3,-1.4466345E-3,2.884509E-2,2.3261603E-2,-1.1400864E-2,6.4356E-3,5.2593507E-2,-6.0915273E-2,1.5936866E-3,1.5109919E-2,-5.680269E-2,-2.68106E-2,-5.828471E-2,7.980221E-2,-2.0984417E-2,2.0321956E-2,-1.422319E-2,2.5069162E-2,-4.4376805E-2,4.1908706E-3,-5.8933515E-2],"categories":[],"categories_nodes":[],"categories_segments":[],"categories_sizes":[],"default_left":[0,0,1,0,0,0,0,0,0,0,0,0,0,0,0,0,0,0,0,0,0,0,0,0,0,0,0,0,0,0,0,0,0,0,0,0,0,0,0,0,0,0,0,0,0,0,0,0,0,0,0,0,0,0,0,0,0],"id":23,"left_children":[1,3,5,7,9,11,13,15,17,19,21,23,25,27,29,31,33,35,37,-1,39,41,43,45,-1,-1,47,49,51,53,55,-1,-1,-1,-1,-1,-1,-1,-1,-1,-1,-1,-1,-1,-1,-1,-1,-1,-1,-1,-1,-1,-1,-1,-1,-1,-1],"loss_changes":[2.0754732E2,4.3309555E1,2.8590836E1,2.2987236E1,1.27185545E1,4.60495E-1,2.0009357E1,1.7733902E1,2.3487356E1,1.05179405E1,2.102443E1,5.885849E-1,4.190096E0,1.0207804E1,6.4246216E0,1.0151829E1,4.424202E0,7.7289047E0,1.4096123E1,0E0,1.1035674E1,1.039175E0,7.578662E0,6.0450697E0,0E0,0E0,2.3555584E0,8.750399E0,7.7675905E0,3.5615616E0,1.2399842E1,0E0,0E0,0E0,0E0,0E0,0E0,0E0,0E0,0E0,0E0,0E0,0E0,0E0,0E0,0E0,0E0,0E0,0E0,0E0,0E0,0E0,0E0,0E0,0E0,0E0,0E0],"parents":[2147483647,0,0,1,1,2,2,3,3,4,4,5,5,6,6,7,7,8,8,9,9,10,10,11,11,12,12,13,13,14,14,15,15,16,16,17,17,18,18,20,20,21,21,22,22,23,23,26,26,27,27,28,28,29,29,30,30],"right_children":[2,4,6,8,10,12,14,16,18,20,22,24,26,28,30,32,34,36,38,-1,40,42,44,46,-1,-1,48,50,52,54,56,-1,-1,-1,-1,-1,-1,-1,-1,-1,-1,-1,-1,-1,-1,-1,-1,-1,-1,-1,-1,-1,-1,-1,-1,-1,-1],"split_conditions":[3.708072E-1,2.4205412E-1,-1.0963963E0,-9.966836E-1,8.833469E-1,-1.4660472E0,1.5693889E0,3.5738793E-1,6.062644E-1,-1.5158224E0,2.5331426E-1,-5.3441155E-1,-1.3177809E0,1.3046223E0,1.4482039E0,2.30748E-1,1.3379613E0,4.0093315E-1,5.5253208E-2,-7.204937E-2,-1.0015067E0,-1.2002122E0,1.2123218E0,-5.489205E-1,-6.0597766E-2,3.3346858E-2,-1.1646347E0,-1.3117437E0,1.817244E0,-1.3067662E0,2.4465852E0,2.5273824E-2,-1.2796752E-2,4.9028985E-2,-2.972661E-2,-1.5688946E-2,6.085632E-3,-1.4466345E-3,2.884509E-2,2.3261603E-2,-1.1400864E-2,6.4356E-3,5.2593507E-2,-6.0915273E-2,1.5936866E-3,1.5109919E-2,-5.680269E-2,-2.68106E-2,-5.828471E-2,7.980221E-2,-2.0984417E-2,2.0321956E-2,-1.422319E-2,2.5069162E-2,-4.4376805E-2,4.1908706E-3,-5.8933515E-2],"split_indices":[14,8,20,4,17,17,14,17,17,17,18,16,20,18,20,11,17,16,6,0,18,4,20,4,0,0,20,17,18,17,18,0,0,0,0,0,0,0,0,0,0,0,0,0,0,0,0,0,0,0,0,0,0,0,0,0,0],"split_type":[0,0,0,0,0,0,0,0,0,0,0,0,0,0,0,0,0,0,0,0,0,0,0,0,0,0,0,0,0,0,0,0,0,0,0,0,0,0,0,0,0,0,0,0,0,0,0,0,0,0,0,0,0,0,0,0,0],"sum_hessian":[1.377965E3,9.528037E2,4.2516135E2,6.8300653E2,2.6979715E2,9.7071884E1,3.2808945E2,2.7883255E2,4.0417398E2,2.1944727E2,5.03499E1,6.445528E1,3.261661E1,1.9607103E2,1.3201842E2,1.8060634E2,9.8226204E1,1.7423505E2,2.2993893E2,5.46774E0,2.1397952E2,2.508777E1,2.5262129E1,1.516749E1,4.9287785E1,1.0303016E0,3.158631E1,1.3228456E2,6.378647E1,9.853878E1,3.3479637E1,1.6159329E2,1.9013054E1,9.703045E1,1.1957549E0,6.3005966E1,1.1122908E2,4.853066E1,1.8140826E2,2.5179066E1,1.8880046E2,1.5993662E0,2.3488403E1,5.3939033E0,1.9868225E1,3.314766E0,1.1852724E1,1.2633981E1,1.895233E1,1.227529E0,1.3105704E2,3.5088303E1,2.8698166E1,1.2816806E0,9.72571E1,2.275087E1,1.0728766E1],"tree_param":{"num_deleted":"0","num_feature":"23","num_nodes":"57","size_leaf_vector":"1"}},{"base_weights":[2.7103685E-2,2.8883368E-1,-3.6367255E-1,4.0264693E-1,-1.2073901E-1,-6.928467E-4,-5.1081616E-1,5.814868E-1,2.2869374E-1,-1.3894512E-4,-7.4784017E-1,-1.3069384E-1,6.3493603E-1,-6.980474E-1,-8.075679E-2,4.0319452E-1,8.435998E-1,-6.563391E-2,3.227795E-1,1.0193409E-1,-5.009849E-1,-5.281977E-1,-6.567755E-2,3.2943827E-1,-3.4654576E-1,1.082587E0,2.7450195E-1,-4.2239553E-1,-8.0538976E-1,2.4778548E-1,-2.8040352E-1,2.6098082E-2,-1.7370112E-2,4.498427E-2,2.3657793E-2,1.702423E-2,-1.9101558E-2,5.637255E-3,2.225378E-2,-1.3045259E-2,1.9132826E-2,-3.919725E-2,2.423148E-2,-4.805361E-2,-4.325896E-3,-1.2926099E-2,2.4350522E-2,-6.57553E-2,-9.549638E-3,1.5766976E-2,5.900962E-2,-6.587002E-2,3.4165207E-2,-8.043631E-3,-4.8873086E-2,-2.4273258E-2,-4.383891E-2,1.878248E-2,-3.291349E-2,5.285116E-2,-1.7016E-2],"categories":[],"categories_nodes":[],"categories_segments":[],"categories_sizes":[],"default_left":[0,0,0,0,0,0,0,0,0,0,0,0,0,0,0,0,0,0,0,0,0,0,0,0,0,0,0,0,0,0,0,0,0,0,0,0,0,0,0,0,0,0,0,0,0,0,0,0,0,0,0,0,0,0,0,0,0,0,0,0,0],"id":24,"left_children":[1,3,5,7,9,11,13,15,17,19,21,23,25,27,29,31,33,35,37,39,41,43,-1,45,47,49,51,53,55,57,59,-1,-1,-1,-1,-1,-1,-1,-1,-1,-1,-1,-1,-1,-1,-1,-1,-1,-1,-1,-1,-1,-1,-1,-1,-1,-1,-1,-1,-1,-1],"loss_changes":[1.4083997E2,3.848842E1,2.9502289E1,1.9949554E1,1.3619755E1,1.3331722E1,3.159188E1,1.4504501E1,9.128763E0,7.823886E0,2.9154205E0,1.3417019E1,4.1229277E0,7.7583466E0,7.9632645E0,1.7205484E1,2.2270813E0,1.0473629E1,6.355747E0,1.304918E1,7.6058073E0,4.237025E0,0E0,